Geohash,vec
9v6mn,-0.13303653089737413 -0.10219229130150922 0.1673324174656673 -0.001133779210584099 -0.03797925681738006 -0.1818569333493177 0.012093769440582065 0.5377295675304692 -0.1406040266754815 -0.1728786573381277 0.32731836813343873 0.17149212762503835 0.1392794334114862 0.10754706531312834 0.27064369447148556 -0.16047672226758236 0.30173869360878486 -0.16124066197389533 -0.3306400107897931 0.11125926930756865 0.36944625300471656 0.01418132287400593 0.37324747711083783 0.1524599616581456 0.25779690171163966 0.05607782471272764 -0.08091260486230185 -0.047160889363681124 0.025869278441824156 0.12945403983651022 -0.3677896370361747 0.3502356333932157 0.16691669096711334 0.09309611517050567 -0.22438598916653352 0.08140685351408586 -0.202113046045815 0.15803265904610114 0.17594493158569383 0.14001699660384115 -0.24358461215335528 -0.29640334747042263 -0.15629704222087515 -0.21443348808592796 0.21039242630785218 0.0525058165651705 0.006188533010918452 -0.19545103360959573 0.012077338612217168 -0.2259263771861776 0.06741252742669546 -0.10831175709771468 -0.02132976647545617 0.593673029987719 -0.27752343546601893 -1.7763592063899851 -0.32626527564966346 -0.19272675564158484 1.0307428658653575 0.25017364542131154 -0.24998932060419923 0.3455846034579093 0.10783245957145314 0.27841842341531814 0.20274225515705807 -0.10934788524577381 0.24854547886894973 -0.02656940017052545 0.022209298239142583 0.09716571006242765 -0.30750496619993983 0.0659640788521116 -0.0015697291967118466 -0.32949390176242604 0.28284033075378395 -0.04913273593643434 0.4200382434409359 0.16754845390220666 -0.4170524172758642 -0.17850361359867814 0.31528816000527504 0.11858046800733514 -0.18200503758864714 0.12927668253090324 -0.522151532722914 -0.15341063517678777 -0.09588769215980138 -0.21532270900713568 -0.037313713674657314 0.05579015434602452 -0.24896328847868426 0.012050371982886682 -0.21511838279282555 0.42934993280114264 -0.3324772340423409 0.13641841004317556 0.09860389111630151 -0.029123096696186367 0.5774973688065279 -0.047031969897319365
9v6s0,-0.0771700960469564 -0.07651309154259732 0.2829568117638279 0.0746283032415379 0.05156477898946907 0.03054503125515985 -0.035926747382498465 0.39957125050857883 -0.34267295181602186 -0.03665615744742525 0.4001528638830207 0.07305954208468785 0.11526125528413939 0.011121204837609814 0.3299339186697999 -0.33477120696638024 0.06764154046253784 -0.041241803485389944 -0.2918896722798849 0.16570936821539406 0.36140596734908087 0.017236860795188057 0.37682853165559604 0.14231968950087226 0.28036878907385854 -0.10417656182197062 -0.040115880608327804 -0.15885760680396396 0.12360533044784494 -0.03777442314070167 -0.3157180817151623 0.28716351486487457 0.07722257585376317 0.1448681991507714 -0.2143578964417693 0.15515473239304137 -1.903570519139612e-05 0.1393675372485325 0.04065177502596552 0.3193079793680997 -0.2606441311277553 -0.4183387555491692 0.0048503082590005565 -0.12649414066915177 0.16564782812765025 0.045015157432639875 0.1595684475992172 -0.40217717529496977 0.10625993704190712 -0.1848614429900438 0.10009871858072285 -0.10051580084702127 -0.09593807155128134 0.7129787555164715 -0.27635845309946594 -1.8044662571994583 -0.20385654040782336 -0.134528865690578 1.1221968524841661 0.24339652363291375 -0.37664357473446397 0.356062089303979 -0.02801982812792948 0.17061200345163205 0.049590363305469856 0.003951704693513157 0.04560839671709558 -0.05188761812755353 0.19398613591687688 0.050308968990992776 -0.33737848812993965 -0.15858442684138047 0.012099719547669799 -0.2452892300623084 0.3224579039470133 -0.050267442068290924 0.24249917663757375 0.09509310999282759 -0.3519996563353445 -0.1697899152218687 0.3732805627220612 0.08117544919936251 -0.239419300062195 0.18475214095287681 -0.7830260645183192 -0.08947164267255346 -0.04729327879899656 -0.22325186046353396 0.10171735573662165 -0.0031104254581616948 -0.18438928720708994 0.127117419833506 -0.3423290378681972 0.32330739041785156 -0.5276281366860659 0.08882380586962817 0.10547575054233863 -0.036810343519222875 0.606397757504591 -0.10677785675458983
9vg7s,-0.027401035633586767 -0.10127150584233693 0.22095358330598908 0.10598860573362678 -0.023161082125250098 0.0095572301253835 -0.09284299267173536 0.44198975769507803 -0.2869376918500734 -0.06300550907429638 0.34633094023609445 0.12232773195945043 0.1651570029678538 -0.02766515806322529 0.2826411007202881 -0.31027631165132724 0.12280330823756169 -0.040896656601974134 -0.256955523035881 0.20657179171001736 0.44020314312658393 0.02292576701347205 0.3670005524276377 0.11829360139522478 0.25101382181539283 -0.09835476619981323 -0.06218324024943311 -0.17572118530745628 0.17561885744964653 0.05149703954248366 -0.2876999830532213 0.18502655300120047 0.030999779445111373 0.14023513610777644 -0.23335847061491272 0.18662833610110713 0.08087553815526208 0.06677717701747364 0.010543397919167684 0.25624479543150597 -0.2988521605068694 -0.44276216410230756 -0.04307717079498465 -0.1991294214819261 0.16755805839535814 0.052360016733360014 0.250433833827531 -0.35594948822328937 0.13275788609503802 -0.3787550489729225 0.10857636708350009 -0.2028588973636121 0.04559287764439107 0.7800430981192478 -0.21424076359076963 -1.8242057048419367 -0.19468260033753498 -0.16305293434040283 1.310082809250367 0.3391330591703348 -0.36442821434773914 0.357403887595038 -0.05875477445644924 0.2554227103014539 0.13060570548219289 0.011232053477390955 0.04764507243564094 0.006955411864745895 0.20543913260637586 0.022735409796585292 -0.38442204189675877 -0.18010692641056422 0.0037182046585300804 -0.1686973090169401 0.27626306934373746 0.02706422578831533 0.22546679073629453 0.16169663846872082 -0.4324499002267574 -0.11328424691143124 0.3983062420968388 0.11665353119514474 -0.292340005902361 0.16279561012538352 -0.8252555950073363 -0.07312055058956915 0.0005813358036547839 -0.218752210370815 -0.011763121975456833 0.03453463822195544 -0.1672154076410564 0.11903401147792454 -0.3471593023676137 0.32859000577564357 -0.5225796863345339 0.09595225051353874 0.12661931943444044 0.0031240777377617665 0.6007785832733094 -0.16985472649059627
9v6mk,-0.31641274708513706 0.059567975288600264 0.16033878376623376 0.08088691825396825 -0.039657884126984115 -0.2050426223665224 0.07186814754689755 0.552774835930736 -0.09833777723665224 -0.2639203177489177 0.36971674455266956 0.31364306457431457 0.2033668390692641 0.10986315591630591 0.34373719992784985 0.028264268037518043 0.4315476216450217 -0.347849993939394 -0.34315571616161616 0.2076827397907648 0.36985439772727274 0.06149113304473304 0.2873493536796537 0.2796382346536797 0.14081084844877342 0.18246270685425686 -0.13486407936507933 -0.004809782539682547 0.05804587983405484 0.029103307539682537 -0.31192435386002887 0.38394890699855694 0.07379019862914862 0.03496817813852813 -0.14878214123376624 0.1484999523809524 -0.22436696576479082 0.19565008961038963 0.2667358919191919 0.05115528239538241 -0.10718007207070708 -0.41314355988455986 -0.20066542698412698 -0.3183865788239538 0.13511769336940838 0.1256086667027417 -0.1411195869408369 -0.05102597716810966 -0.07397201144516595 -0.24940948538961033 -0.06361500829725829 -0.09236671085858587 -0.06470890757575758 0.7546370768037518 -0.3987002764069264 -1.7900220638528137 -0.2852704533910534 -0.15704659044011546 0.9461942261904762 0.2566550367965368 -0.3224015790836941 0.4813023462481962 0.09030818232323233 0.35407032417027423 0.27761020616883114 -0.10092253784271289 0.19334564682539684 -0.16457943780663783 0.07642898747871574 0.07713165324675327 -0.27200466666666673 0.0006001798340548355 -0.06066712669552669 -0.33106518694083686 0.16930769859307357 -0.008498703246753234 0.44384958982683986 0.1465454725829726 -0.4716630362554112 -0.19237920301587302 0.3254700421356421 0.0537301168109668 -0.16357033082251085 0.17385390808080808 -0.3270393874747475 -0.09075672546897547 -0.17996162727272727 -0.07851122395382396 0.09447029007936507 0.1401236937950938 -0.271552782034632 -0.03852873502886002 -0.3385986362193362 0.5526725450216451 -0.3486401093795094 0.09160808715728717 -0.044192279797979815 -0.1364134318181818 0.5606806357142857 0.019755808080808075
9vg7u,-0.07579857407523162 -0.12224778610031284 0.3800840239987786 0.026357527042566224 0.09016695817615374 0.07023689486454034 -0.01676627400886094 0.4748863518818621 -0.4514961265301392 0.07532468565589744 0.3930979666106723 0.0197741150085257 0.08436813438019154 -0.08563604312760684 0.3809116892831404 -0.367054154382896 -0.009722724580666744 0.02337369975646352 -0.2102393412902182 0.2431175109398931 0.5039023158312544 0.19608127754828528 0.30354658633778653 0.16827830815489633 0.26987263636617337 -0.05750340779867881 0.025609030211037682 -0.2394888499307546 0.09819868491118132 -0.09286050254128568 -0.21160229716869577 0.29802538747769775 -0.07132043447655802 0.08212489641745939 -0.24484907692121138 0.1524652924701786 0.15691624129672613 0.05382823543441712 0.049265726672046116 0.5300115899839196 -0.3818070237700141 -0.5312990125852077 0.09111302459772942 -0.06598775731025543 0.19669759306995727 -0.021558038283141876 0.32120002088045846 -0.6397649347904453 0.05687454855216518 -0.2652484564605283 0.06717066818278127 -0.23021089600048997 -0.0727333675127796 0.9007193779700683 -0.10956712859755723 -1.81236573761386 -0.12527513100657012 -0.13713685599767453 1.4087403014541444 0.4340416378942696 -0.3370629456735869 0.32893194483269866 -0.035168760307580024 0.18169975187548876 0.13804913693100582 0.18292533708350178 0.030954247911549587 -0.11224260696535664 0.3028376024239508 -0.013115675354320776 -0.292419913179124 -0.17700498733288555 0.08204698089757954 7.952496228797183e-05 0.3971361141786856 0.13947645417263688 0.12553305708780385 0.044223897075764275 -0.4167227636290179 -0.16164926656614903 0.5634619825770274 0.07646039203747511 -0.37864572311946504 0.12945003635772256 -0.9388166407811906 -0.01782601719082001 0.0782739987966206 -0.2945260819555805 -0.019764388354799125 0.027822482611529337 -0.09652769123698678 0.2296955651254164 -0.4628142191146323 0.12910437163226177 -0.6330023287642425 0.11730526371985514 0.04707952111464209 -0.018692268533533552 0.7395481140378388 -0.16025778706694663
9vg7v,-0.06279699033446233 -0.08745470212936288 0.3792268366373506 0.07168784081588056 0.019921190020669454 0.05116826419636079 -0.03245888779904641 0.3877040155096768 -0.4684412728086043 0.043925338214267605 0.4875215201565695 0.03774978934573874 0.13993600405333464 -0.026679479724397628 0.43186243442485917 -0.40258564807240504 -0.10146772121862789 -0.03768232304769507 -0.24767683781004343 0.23634189998919564 0.4874131177364292 0.10760841039237612 0.34628848928842937 0.12413515951336968 0.38721840003482505 -0.06049245157562336 0.010053101230995861 -0.179677177968059 0.09972655233111921 -0.07974726805380843 -0.2685998008716465 0.3308664024913663 -0.044878748054062466 0.01808479334544148 -0.21765136342807218 0.18313963435248606 0.19271242633317837 0.09818812162702252 0.0019418199375131424 0.4630731322537017 -0.3714814444170524 -0.5623145115279585 0.06652451012464797 -0.09307547693379314 0.1549151385772045 -0.049992111769084864 0.22755099450121136 -0.6863186543759646 0.11989244144360742 -0.28138279981277886 0.058040887312310774 -0.204123739681809 -0.1260525916780333 1.0015408706642406 -0.08690836582664047 -1.832569680597585 -0.10699426484388246 -0.134878105195063 1.394716231942295 0.45228466018406166 -0.29647429469350717 0.39303396687836345 -0.09183782987203654 0.18707282001812026 0.19958238459310437 0.1848542421285586 0.012519159283906456 -0.08901505936189803 0.3982160616116954 -0.06400320524102301 -0.24576238277652732 -0.19429058802630644 0.0658939984164133 -0.07615083896274778 0.38995193064994765 0.16259219664017574 0.09689139549080726 -0.01250945537478037 -0.4447633913352048 -0.14815370136979783 0.566060064771086 0.05092564723973582 -0.36982347374261576 0.11777411302637186 -0.9528653967891171 -0.04398419945840826 0.08114803067708694 -0.19943103075927363 0.04996214008017761 -0.045440432197278516 -0.12724371875968737 0.23486567099138803 -0.46243692033448275 0.08090855878119989 -0.5853471189974054 0.09662825664874959 0.031573859889459405 -0.04983773110896601 0.7439702623983337 -0.11996989186768299
9v6mh,-0.25430606976571674 -0.03939996836934997 0.38167048914535745 0.11067687749143398 -0.03356658302530801 -0.14431822572188044 -0.05213993662920413 0.5953291354018059 -0.15019564536757105 -0.09275791335906784 0.20184075676671284 0.31588029379779575 0.16588050463330534 0.08949361947236972 0.2781987415688843 -0.04439672822491836 0.46450110257052896 -0.2398845589266362 -0.3729118651761981 0.1275997658221895 0.44693946235329 0.0610059447852586 0.27542723981325695 0.14458437148415915 0.2501426837372423 0.14434918806332553 -0.07498829056141228 0.027199221070596063 0.022822041056239098 0.1139799521450041 -0.2076695343340869 0.1590409234907636 0.1850716953331026 0.18653213992425705 -0.15758892801353616 0.03478025964012596 -0.24420976841798556 0.2744543902836929 0.2520931173027995 -0.03342017650164163 -0.28714490768223 -0.2368011188887136 -0.14062525229105688 -0.1518169365929392 0.06144011280009465 0.045176765882794095 0.044977827842625225 0.0872490845541155 -0.1878214210653053 -0.2694897998379982 -0.0013250691143651622 -0.09318430974290332 0.08929238767825741 0.7067598239741985 -0.3383430416709752 -1.8647831744958254 -0.1635785678320948 -0.12095643343533659 1.0609730090180056 0.2141857457349668 -0.21821974670329675 0.5755695788061354 0.05992613159424638 0.3025957697383026 0.17908196269498047 -0.12066880294369373 0.25299547301769876 -0.022792115334300197 0.013454224232930809 -0.03510192509727113 -0.25968410405113895 -0.15020826196464354 0.07741470540256527 -0.42126424842116944 0.058114224894184746 -0.06561086396101706 0.4583535926949513 0.2595982624172611 -0.43291732949506634 -0.10559617857106346 0.4151414371974517 0.2099187579970468 -0.17344818609611884 0.12779888324679706 -0.4497306871766391 -0.11729243008782153 -0.017350232039962967 -0.09555818389607469 -0.023911225486209678 0.14837147483298863 -0.17018410295556052 0.052469798873860045 -0.25243753673824715 0.5713833526212968 -0.25193893397083916 0.10534287480498304 -0.13183214623072834 -0.05902796939354506 0.5847430985970099 0.001475645101243776
9v6mg,-0.2938155318288655 0.06617657273601396 0.33093713666472413 0.10846810153855868 -0.06061408603350815 -0.006785455886752135 0.010491136625874132 0.5304627644133644 -0.18642637511752136 -0.16886266051670554 0.24316615328088576 0.24178989372960377 0.2562419487451438 -0.0007402831983294392 0.24301675669871797 0.06273743633527583 0.35961576216588964 -0.24816276723387717 -0.2865190552981741 0.10270537867948722 0.3658527811829836 0.05376199770784771 0.3343705193599456 0.241304819100136 0.18136150605477858 0.06217277413267288 -0.017533039867909862 -0.05423376652874905 0.01280932949883451 0.09333739325951826 -0.3624754616520979 0.14554942198912196 0.1895747876437452 0.03234026582167832 -0.09927544875058276 0.10414095087781663 -0.3043841526651126 0.232004149531857 0.29804058861888116 -0.05178725804390054 -0.12357383860722611 -0.19762064968628595 -0.1518345548135198 -0.24746646641686096 0.19342864144959207 0.05303491524864025 -0.15478975813908316 0.019696465545066044 -0.12415851207364026 -0.2819862096547202 -0.05104324999592075 -0.12846254560217557 0.07309954730963483 0.6001249871386947 -0.3327053313603342 -1.6781737709751359 -0.15782061372338774 -0.06385378975233101 0.838195174419192 0.21929702816219893 -0.252872683517871 0.506124979132673 0.009840211839549333 0.2015217120044678 0.22630598924825174 -0.09451558186043123 0.22316321635780892 0.0018628375553613036 0.07509070109459985 0.004915320728438233 -0.23773341666608397 -0.16248055670163172 -0.04469451632090131 -0.3062646971833722 0.07584906437160063 -0.038041787437645684 0.30486579163752914 0.13369150363927737 -0.40377100136946387 -0.14946067784576536 0.41885103604312357 0.1296810713927739 -0.1732232063174048 0.14737047807303807 -0.4345052704895106 -0.1437804904594017 -0.15611212529526033 -0.09019968713383839 0.03957919289432791 0.17409369313616943 -0.24053815339063708 0.12598280924630925 -0.1270948449747475 0.5261036741724942 -0.3359347476971639 0.07660844544677545 -0.08106445968201245 -0.05685076518113831 0.4797378132158118 0.0012445025359362808
9v6e4,-0.09319903317307693 -0.08050022674996571 0.2629089275469629 0.07763914768785136 0.00574143703722748 0.031830430806938155 -0.04058558691553545 0.4457854267619636 -0.2024643066416427 -0.09773364965549158 0.2373291082030714 0.05009755582493486 0.07722784448272316 0.023271510746606328 0.3068222807143837 -0.1477805981934732 0.12906749719251334 -0.10162303816759222 -0.229341693130399 0.10900850757318663 0.29811154540484025 0.016869253772453036 0.42339301827094483 0.2641490458410462 0.15505223035102153 0.005699014731591938 0.009904538195872751 -0.10739016006787332 -0.0196449202660085 -0.05957790052961744 -0.321197174011038 0.19277213229295212 0.034593645327711496 0.16632844139071712 -0.14392240940456605 0.0696255813622652 -0.03371579302927467 0.11702240532017004 0.10388419763814616 0.22772648460852876 -0.24191094461298504 -0.34061589532771147 -0.1625958526240916 -0.19849928201700262 0.11706903434714794 0.0865885342451666 0.0083602087618264 -0.29366635669477575 0.009795256165672566 -0.2810521986022556 -0.043868110551213486 -0.08175853129713426 -0.09699704762272043 0.6124331339435075 -0.16489072135095298 -1.6537430454039834 -0.15206812352701218 -0.16200179580590976 0.9078467504284932 0.2554493845125463 -0.26694225554984236 0.42684054604929383 -0.04162276282051283 0.15515497831310845 0.2183667259084053 0.003689427269299328 0.13300694493006993 0.01536363998354586 0.2941377886243658 -0.022378075740436033 -0.18209205217331692 -0.11053911868058414 -0.005479295572809541 -0.3125735652166461 0.16433636281022898 -0.06652853293569176 0.215259377845194 0.1326637192993281 -0.4279226698717949 -0.03874647384649663 0.5296319211744138 0.03769700479912245 -0.28390402072192517 0.1891341079339778 -0.5411863842263128 -0.04869064243966817 -0.1484761559594817 -0.15670865186651584 -0.059941008724118984 0.026444363027903484 -0.14870830274406968 0.08516067012889071 -0.239002717821884 0.2964327269470725 -0.4227158850353079 0.19284809220314 -0.02195398136055121 -0.041473786396201834 0.5433033119103936 -0.030103366858631575
9vg57,-0.03811355310480262 -0.08109822734772137 0.32958818823882813 0.04535729366855948 0.008994120241049083 0.04656340635061728 -0.0258779741976341 0.3361558090966309 -0.34688635764930875 -0.03011754657288603 0.42836218271777204 0.08092940260720113 0.09291909802013362 -0.013303710306904743 0.34424571833295464 -0.30747142298102476 0.005297018167321334 -0.0014663035139247731 -0.21736298829203565 0.15343258773488017 0.4028037960624343 0.06647799570805078 0.2303132059441922 0.05597561892288024 0.3425510067714489 0.004403328876005611 -0.046166980723620424 -0.1240591200750281 0.10356223636366635 -0.07366458255449718 -0.19591847403238613 0.3545195237484285 0.03483753480173057 0.10423467873904425 -0.19760252440109446 0.17625981474525346 0.15049432830602177 0.13877631667331486 0.026412422934684755 0.37591324272389043 -0.2678973835678376 -0.46015143702402583 -0.0011484049653563914 -0.10011375958786686 0.10970927889323591 0.016616827407162717 0.1763342588099277 -0.4887049203819952 0.10143052255942589 -0.2687983259549513 0.047815483612675985 -0.11254859496311918 -0.05508380691615196 0.7611171088272666 -0.06670557524659876 -1.638568212533224 -0.0992950178930609 -0.11622620420220064 1.185069727670839 0.3399203340291861 -0.2722156444947943 0.3619159829412523 -0.01813706279894644 0.1649231155436682 0.13643190311988046 0.10700752669558256 0.0803617893947092 -0.048638241327050004 0.22868580783662468 0.01444170752145145 -0.2979773871402142 -0.13388978275653707 0.08687243196563865 -0.15091471519788074 0.2800254319400474 0.04692444765169894 0.18694077541633203 0.04010904941752861 -0.36006799518201926 -0.19443203569145506 0.39384123490948947 0.07228497309978947 -0.28528909074725317 0.11657917700596324 -0.7778894586931745 -0.03386534045893296 0.040084230177049936 -0.16379930881475432 0.035006565325122314 -0.023298164479472343 -0.13408260162227947 0.21915064617079918 -0.3676653778014781 0.100818748713216 -0.4886573945073003 0.076960430130012 0.04934145788361719 -0.02850798285948494 0.58641115449493 -0.05414582197111266
9v6mm,-0.04811081087213128 -0.18260803426605382 0.31671159319130027 0.09209824900732767 0.03694943881643202 0.004153147172151805 0.04558609516537063 0.4312043746101422 -0.33536407561626524 0.020436870759854054 0.450427754104107 0.06091280255518788 0.06665039741618621 -0.03463984917707389 0.33664010465308997 -0.3492425419027692 0.04388606948941021 -0.0500732753933935 -0.17358690850377562 0.20801131360898317 0.39290798935723015 0.10865623882247123 0.3349486047240673 0.18759018588518642 0.2837872612557069 -0.004603696824313211 -0.045886665916193545 -0.12582084165352658 0.05449316924523212 -0.05515884931788611 -0.25407949665908425 0.2599236844350623 -0.02938018971863326 0.15621963209655246 -0.18120351645954844 0.18949186069372678 0.1115674768651848 0.12507949693259426 0.07041765000465344 0.34029947714237896 -0.3120162687998171 -0.4036998901363899 -0.0291296479644993 -0.06955646899083867 0.16625001302465386 -0.03856591937248303 0.15021589242560232 -0.5585478089961582 0.06937291716499283 -0.21765759379641939 0.011158831989846175 -0.1471825916714544 -0.09664921926080211 0.7878957288942843 -0.1489828085192646 -1.7196718248198535 -0.13956658657756008 -0.10933977543674514 1.1974738874983506 0.3403409012177021 -0.2860405565685727 0.31494815447667934 -0.06130379037981265 0.12395897463421203 0.1430045261719049 0.07433229280279695 0.08161841285311339 -0.15955463334258232 0.24120653563295472 -0.015158220152796602 -0.17632493993037246 -0.07286637471480732 0.06510716603735058 -0.19035730855921223 0.3653124823901337 0.09083406773011174 0.15839976304607248 0.03920482899954059 -0.31710319617257426 -0.09776218770443708 0.4716157239347529 0.026337067538111478 -0.3436369984586503 0.14562058575795256 -0.7617761598321798 -0.007657142799061959 0.002101085319275157 -0.19660644800327137 0.0738219651522584 -0.014246595593058787 -0.14484075534220514 0.17306706662133317 -0.34863507985398134 0.0893592145295044 -0.504360979512929 0.09283354319606897 -0.022873537521642687 -0.029084912419193372 0.683403327590783 -0.060132245108188
9v6t7,-0.08134842811343079 -0.09623172308376408 0.2712369759145378 0.013439487744494672 -0.0015208874450672867 -0.03519644293929372 -0.08669437311980284 0.35006147672945565 -0.2460541149968583 -0.060040937264036025 0.3859672499609192 0.1659499971174286 0.1649421798514662 0.0933682369397153 0.3245634516121133 -0.21467604347043256 0.13965520234585657 -0.09987635420616504 -0.2872457594516669 0.15542924850474393 0.3590494207973118 0.026481608264478783 0.3190978713077299 0.1251371308799557 0.25885759363674493 0.017982826772453116 -0.05303264124034265 -0.11631382809735379 0.037824079999199955 0.12330519133168237 -0.2546001341498909 0.2763990359244699 0.06323530481814768 0.18436941226133607 -0.20703651207757748 0.0895543971746486 -0.006645900617232866 0.15345398009106614 0.10617309107641541 0.23336353640166166 -0.2182900239896212 -0.38138173389862673 -0.07414050312435892 -0.1077061839193915 0.13931297102000584 0.07341992094040042 0.06137899204449949 -0.33443616569519186 -0.007586710319545383 -0.2476248077794683 0.09179942819573869 -0.20363348998260847 -0.018820830500693518 0.749534551626156 -0.18487513843515663 -1.650906264006986 -0.08595887752468484 -0.16438264737644898 1.0592770216142677 0.3363936191592392 -0.24921665736875925 0.395886500778781 0.0005147557804783265 0.1617260318658238 0.1640652207395546 0.06796442344314234 0.10716382669813938 0.016746324121774635 0.17269415907562582 0.09750394765125493 -0.246184888266547 -0.1927293919106318 0.0005373178099799764 -0.17920632554595556 0.24781196849116502 0.055515103448427486 0.24858407630895837 0.09160365114280213 -0.5078403991169353 -0.2232193771533009 0.3833566686832021 0.06225033502212326 -0.14227876340069687 0.03080982695461587 -0.5773124464233906 -0.10332634488463659 0.003009517077992753 -0.11025157169425776 0.035952383147594455 -0.06356229147287712 -0.059405619029598664 0.08504147225089441 -0.2597692754701637 0.29894764356653475 -0.4057443911808697 0.13219665753362267 0.11165687945092374 -0.03334203426582276 0.5542022005052071 -0.04438404490370868
9vg7b,-0.03766811296610291 -0.13503866217251115 0.2600365507131011 0.04728610038784474 0.05446496193381943 0.08111048419060479 0.03719282634847431 0.4041631771330187 -0.3942903092915762 0.08793065670272524 0.3556302330380552 -0.04401735732753327 0.0857435203304764 -0.029661618130843663 0.3055285545748937 -0.3014663480974576 -0.014383368701544419 -0.00477429353116643 -0.25828947967704197 0.16336496225902256 0.38604689127895747 0.052233487199187786 0.31074895800374963 0.2267246951823858 0.34255981001293656 -0.09792181667858393 -0.019001058266389464 -0.24058291837363643 0.04305978835772313 -0.04132407721609584 -0.2604237115498227 0.20242060105648849 -0.04885419467313716 0.13131584873729435 -0.1846728681432831 0.11299698515312598 0.09044171699237617 0.08466268084653167 0.04625686435943849 0.36378164657392204 -0.2778485607852558 -0.3576480938328512 -0.0206869563237524 -0.1440539523479452 0.17291612315916505 -0.007512964612920211 0.20672918205956423 -0.47615179850057 0.08749605343804384 -0.23846865768738038 0.041727244758111695 -0.19400481942409953 -0.07345822964297337 0.6623977425677608 -0.16630784060695974 -1.704285789000944 -0.11669893255518139 -0.17285542866809253 1.1522003167730452 0.3705186607282485 -0.3763618027003174 0.35089742733921647 -0.054553766217715585 0.1308529144741872 0.09530911016514222 0.04198878573946963 0.09004343688292743 -0.07051480820572846 0.21411620587751815 -0.017223480809536573 -0.22775895153913686 -0.06147734918464765 -0.022651158837988232 -0.148702220408841 0.3579795504346022 -0.005706294226987284 0.13869632822887643 0.0009883859207832032 -0.31171191338542253 -0.12153363037206431 0.4399935794162695 0.07435190060356711 -0.3685763852295923 0.20575584795566557 -0.8019868572015865 -0.05407308238875049 -0.0361814216457815 -0.19923173372167338 0.0569148364800552 -0.04605561264549833 -0.16401717155959783 0.16401586463271342 -0.28901246710888406 0.19597211806877093 -0.520618650137566 0.07528015347492381 0.07815974367681094 -0.042604767577933716 0.5934296493980871 -0.11876936771974493
9vg7c,-0.05691048692557274 -0.1113814385195733 0.34168259643066656 0.05840364797581194 0.08669665818427727 0.092772416728709 0.014661892620926986 0.38126578651072235 -0.4382447766529299 0.09173389967174163 0.4287336047225012 -0.029562498765544634 0.10065463176540647 0.018056955484846857 0.32518226408949297 -0.37320808255052385 -0.11465611420442338 -0.05688679431104922 -0.1787739920982122 0.23263499240968075 0.4016167247169046 0.08007808134025857 0.3203836590364788 0.17380968220338877 0.3744937214171076 -0.11076561056145434 0.041896529087789694 -0.1454721539317564 0.08028990010854506 -0.06008046410852749 -0.26159264851597225 0.2662369181014357 -0.10186583937551548 0.15033485867281474 -0.19126388052999663 0.1745106675720336 0.11465192525064319 0.09713869514347698 0.022641279917475533 0.41006064189180896 -0.33380160304392076 -0.45507560041692385 0.011623588503841082 -0.07304185553501202 0.171868246329199 -0.07147345533521968 0.23452765059018849 -0.6513960308322959 0.09185962083667201 -0.28541567460577283 0.048805059970991015 -0.16747970544734245 -0.09869074403093052 0.8533313545088955 -0.14587741202554944 -1.7289663650247107 -0.10219152770968555 -0.11978704464435969 1.2359166919913058 0.379929575268889 -0.29031946252092705 0.2813304535053104 -0.08117168348580779 0.18511410640172568 0.09107417645525451 0.11851828318118927 0.036611127481478614 -0.10443918236349187 0.3201222631338945 -0.06006078141297535 -0.20863550440271658 -0.14261128529130954 0.05362320609774139 -0.1166445698552804 0.3852362724409809 0.13509750812954152 0.11659637479727072 -0.009580353547222602 -0.3699414607039094 -0.15738802414543698 0.4970731035867857 0.06333314159995745 -0.3147259265831013 0.25336171624751636 -0.9009914370327894 -0.039726794811603384 0.037379340669209116 -0.2666107957225055 0.06448000670903378 -0.006571561622308949 -0.18982812414396483 0.2962743733840099 -0.42339583662500685 0.07268992087972814 -0.5834921509317046 0.04954537160309526 0.02070765645184935 -0.011329721833473787 0.6870574216749229 -0.11877535605384523
9vg7d,-0.09910577281931454 -0.12344535209218124 0.3576062496431438 0.026223872153804978 0.0766525815721675 0.10534213203357884 0.045154398775965866 0.4501933347904894 -0.45916937117473705 0.0904448776557634 0.4323032425605271 0.03622305166258512 0.09473927776996958 -0.08703900392848497 0.4318381353259921 -0.3093448528635268 -0.029229314202256274 0.0011578102734732638 -0.2298345503175831 0.26437393602993503 0.5312144350107522 0.19293390174698274 0.3152878785509981 0.20619293373181954 0.27615137378397425 -0.06375441151291901 0.01574726941825788 -0.24690809361286284 0.11607936806133434 -0.05856076149296624 -0.19952157142214416 0.321000174301995 -0.08186721382261482 0.10270921301524506 -0.23775922993005855 0.14245879217613297 0.14831667897949302 0.07126976626330601 0.09440004296689437 0.5452496422496645 -0.32533148759859665 -0.5343005687295331 0.07366602347594656 -0.09520088090612787 0.2044900508305759 0.0009432102743696529 0.29172286894285454 -0.6160261891344418 0.02780063296410143 -0.25518462026689825 0.06277322837690633 -0.24231464010414108 -0.05316335877518325 0.8368681653858686 -0.15772673339435642 -1.7834495602775093 -0.16093935768832002 -0.13866821459515255 1.354703988677144 0.4308695781545368 -0.351016404609802 0.33213850646478205 -0.06510839208524216 0.18446831024063423 0.07301496165271566 0.17918254739194114 0.04132975852712755 -0.11782798555186533 0.23174308397971827 -0.016522911671173666 -0.2935706345483125 -0.15880177585032385 0.05949945581376735 -0.02319219940096247 0.4174032424913819 0.09538658840430779 0.13739148832941558 0.06336987182910524 -0.39076820189662603 -0.20659428238372346 0.5345799940345372 0.12528205696949346 -0.382587523571556 0.15551843383743036 -0.871924312219267 -0.014005373594111449 0.0582256669932593 -0.30686359725152573 -0.02341095018443893 0.0644388578246178 -0.10127820382250105 0.2698937688208356 -0.4273494369959711 0.12935077410351406 -0.6431086828268703 0.1290556256341426 0.06516449781904379 -0.027069962595805047 0.6901747541953787 -0.15839323611397774
9vg7e,-0.0972300175 -0.14594242857142858 0.35797533000000004 0.07047224678571429 0.12955539642857145 0.072692925 0.010036510000000012 0.48095628214285713 -0.24194248142857142 -0.05349892857142856 0.21447862142857144 0.038393246428571434 0.13853881785714287 -0.003123349999999997 0.32401847142857143 -0.22628683214285716 0.16372298571428578 -0.13098456785714285 -0.26239493571428574 0.24694384642857142 0.4018251428571429 0.11614746071428571 0.3309898178571429 0.2080663392857143 0.12301314999999996 -0.1158060642857143 -0.01011841714285714 -0.16420909642857143 0.07000305000000001 0.010143403571428566 -0.19360174892857143 0.24096802500000003 0.005632489285714262 0.12256972142857142 -0.08477685785714285 0.10965827499999999 0.036412553571428564 0.04288732142857144 0.18312586071428572 0.2352884857142857 -0.3640641785714286 -0.43904838928571427 -0.18418133214285715 -0.226011725 0.23423784285714289 0.015033964285714282 0.20952522500000004 -0.4625574560714286 0.11026105939285714 -0.3133844892857143 -0.05776591428571427 -0.17989285 0.11988452142857142 0.6757781 -0.18243563571428573 -1.7672197821428575 -0.04869904964285714 -0.26663908214285714 1.19090425 0.27965027499999995 -0.27979732428571435 0.3612262785714285 0.024993028571428568 0.24482051071428568 0.22643429857142858 0.04308390357142857 0.18384606071428572 -0.033596360714285706 0.2042412685714286 -0.08699309285714284 -0.23627064285714286 -0.0792569392857143 0.021932296428571422 -0.2937197857142857 0.37569950357142856 -0.007633423928571442 0.19024207499999998 0.09122511785714285 -0.40968577500000003 -0.14199977571428574 0.40196605357142856 0.12278787857142856 -0.3565350842857143 0.20009346428571428 -0.67943825 0.03647021785714286 -0.030929855714285692 -0.22101683428571428 0.11914625714285713 0.06513543571428572 -0.2478005857142857 0.21988874642857142 -0.46603910714285723 0.14644942857142856 -0.617260392857143 0.14051047142857143 0.015911546428571417 -0.00043507857142856786 0.6253726357142857 -0.08204232142857146
9vg7f,-0.060193099689082055 -0.12248140101671687 0.30716591152532247 0.005573555266275919 0.06401394371303917 0.1160675532816472 0.04843072932306064 0.40111693048538444 -0.4864645348710018 0.10153768645642851 0.4443184487254432 -0.035997680088524504 0.10687488702719328 0.0003787478189438314 0.34181258414163684 -0.3673573736588653 -0.0873568929895407 0.00738962090347801 -0.19193924238079002 0.226839704350465 0.47202885551246715 0.08599035670407353 0.31270230124490994 0.1502919148320634 0.3818181218460714 -0.09124910555733676 0.021416843614492965 -0.17826083003806553 0.05281690250705177 -0.03379441402827276 -0.2205200390133703 0.26271246850281826 -0.10718550660083956 0.1638079999276963 -0.21663603431680295 0.17476477349579486 0.13296035094256956 0.13364177549992395 0.028674620420040358 0.426453112979893 -0.34175129300296014 -0.44857449429470897 0.04001253596201952 -0.09972835025545389 0.14913259809017876 -0.03999337771887379 0.2454587337842256 -0.6458519655384312 0.0849499669310944 -0.2609263679763865 0.06697051350342757 -0.19439090440201862 -0.046212137145800185 0.8133659300716586 -0.13923167058452557 -1.7501395330189324 -0.12586135933078238 -0.14443829808399264 1.2726432636134175 0.39105234433054925 -0.2988427611531851 0.31513903730030074 -0.10145430535315798 0.16380061927480052 0.07017970056967733 0.13503846388398033 0.05169763713240816 -0.08557412970725449 0.2638469004970172 -0.03378204719465223 -0.25555211252571436 -0.1432342786555904 0.04404210852445325 -0.0806399317025055 0.39156766784128505 0.1198653221139659 0.10576514577459736 -0.020288277332475305 -0.35399500167794057 -0.16814070755756644 0.4849799347318195 0.1017014772125875 -0.36048500146809653 0.22308910454251918 -0.8797026219247978 -0.03469138125043497 0.06371787397424854 -0.26389841977080486 0.059985937157940095 -0.03797470575934302 -0.14784744104814543 0.31610407006176244 -0.3787669866673792 0.09793398725112835 -0.5749490170737722 0.057196435503582346 0.03495926101355393 0.0024571680320376495 0.6706218908245398 -0.16388603108118335
9q5fx,-0.11853324816469027 -0.06264238298526578 0.12324914862837778 0.19166337729285118 -0.05213784564802481 -0.08204378250427043 0.02249721532721394 0.5273344626920918 -0.12875008696854587 -0.05577081045012601 0.14945669229583178 0.25838822630872216 0.06616633778027525 0.06547520139973194 0.15547417525226834 -0.22304176433222128 0.37044279481602743 -0.050650199127878284 -0.4550373860132153 0.2194186816387368 0.3195769213765658 0.03439901230595536 0.34194046939773176 0.24252143978394047 0.09383123451918453 0.05075838238865044 -0.22862635489130212 -0.1575496124235847 0.014630608014721916 0.13859191602086185 -0.2451530376196849 0.19585185207513672 0.24328417431200489 0.3244596851051727 -0.2213902747545048 0.09043542898218038 0.0036589147619458745 0.10138141677211676 0.1871870820543654 0.015012555901197563 -0.18036708649975022 -0.17222866903806078 -0.16398539030707152 -0.356129787788035 0.09814632022963658 0.17974881820494323 0.15846624563445816 -0.0656096191567178 -0.0784847568521314 -0.06559681450673811 0.07917018642818088 -0.03296438442490123 0.05053223529412973 0.45699037632683165 -0.323990520010288 -1.6945418844178461 -0.2855044694828833 -0.14053495899185686 0.8811169390704974 0.10202578908627383 -0.3041152543376377 0.4173787303918303 0.011851931878872148 0.04213787299588272 0.0477314534744679 -0.06102799146573589 0.17412723035540603 0.028236697548387823 0.17534075721979667 0.13576161080894414 -0.28094938345787956 -0.0676218151848152 0.02058406039166595 -0.3728016551976829 0.19347055782113973 -0.05813304356424441 0.4591057334383724 0.15552477726717728 -0.44897660942545126 -0.11650632372961406 0.17450596597723264 0.09342669131778712 -0.1340131868427355 0.12244189823381348 -0.5464471264998736 -0.16165911309477565 -0.11449536682540708 -0.05231232037458424 -0.005478595052683922 -0.03932488108571469 -0.059391346736432295 -0.10432916075313574 -0.12647612109978498 0.6751346690525525 -0.3813530144444546 0.2141450486701056 -0.04281180292276652 -0.0606478650006372 0.48767140766394096 -0.14423009568553877
9vg7h,-0.10361698001688154 -0.07055113784330179 0.3342034789534176 0.07912024353007865 0.027331666261845678 0.032196605354329465 -0.05602117844344199 0.4317766250294756 -0.2759243857064498 -0.029545794427029384 0.40627180730775203 0.12689056911164606 0.1405094559103272 -0.04883848053863071 0.4193516233949843 -0.24660092840185405 0.010902023070380669 -0.0798613373485317 -0.2536527049586396 0.2107821661999424 0.4143684291746812 0.12142047996530593 0.28869523550442694 0.11767520327453372 0.19526801960418608 -0.07362961700568302 0.03868275913030358 -0.12358266918277945 0.1895798716096034 -0.12487844032455254 -0.22340219733370426 0.33008967088946606 0.04526493883698385 0.08166273009045737 -0.11385507343601711 0.14368930648222167 0.09064711159839402 0.04000601254792179 0.06624089851226635 0.36723486428958385 -0.2856216933700989 -0.44710028415935515 0.009695794444484549 -0.08547257404166006 0.1591886750924419 -0.00854171236748079 0.06754664035389737 -0.33710637851697134 -0.03412648420749109 -0.23735313740286856 0.055053223447426095 -0.08075357403357682 -0.08165877527220078 0.7511457675771979 -0.1091485407459976 -1.7001204057460308 -0.15640068442409927 -0.16980625097215105 1.0914853717791178 0.31155952186528624 -0.28171967107669055 0.2708230135675418 -0.028114903619207397 0.21872361366360982 0.11014524972003448 0.07149448516310125 0.09623756569704159 -0.07275266999025276 0.20997933504264485 -0.05189979067403023 -0.3198748309038112 -0.14159384707822767 0.10685476014515446 -0.19202085924189757 0.27916592252811223 -0.030304550790311528 0.21566458138987885 0.13919906233988566 -0.3058000929301498 -0.28347563785221097 0.45311291489129335 0.14474275655109572 -0.23843244087800164 0.1555865480955976 -0.7652751485920265 -0.04197713149016841 0.035107284423084195 -0.21969121106755396 0.03405338028280418 0.11739263854285488 -0.09229870200030621 0.15923393199355748 -0.36823023752499456 0.21661343864441793 -0.4089537682781861 0.09957668143429611 0.07845478859556808 0.06469926595261812 0.5786121267500298 -0.05255627186113429
9v6mv,-0.09368683784599072 -0.045944555987102016 0.3906241584447403 0.061515634630245085 0.08014520525581614 0.12891333823869888 -0.025714704305413505 0.5624702564244412 -0.44408348811276344 -0.03523467067218641 0.4876544251085679 0.08216626561405309 0.08202559770568844 -0.11154054830690785 0.403369171049022 -0.2352740307868181 0.16798559065908178 0.08340474417006809 -0.27442111829681526 0.2183743470488636 0.6014666850750735 0.24816607145902805 0.2936904355676967 0.12014195506025327 0.35547779150551806 -0.05916935561786549 -0.04826169994078365 -0.1365474377202178 0.036264794033592423 -0.07680982720442987 -0.2467573261043706 0.3779242995663717 0.06042757493073397 0.16355320751382124 -0.19184638725947784 0.23479838453911756 0.03253149226678099 0.09922477719381279 0.09519870453919212 0.5048275964909689 -0.2773048261512802 -0.5690764741783374 0.058117819752594 -0.037560589803324405 0.2508603851769049 0.049644130254721384 0.3147289598034739 -0.5972825217074117 0.03649284133911672 -0.14413342008594676 -0.0016134336299382594 -0.3191609162022069 -0.04267349415562841 0.8815931319871152 -0.15214716876545614 -1.841142941341118 -0.11327741182743832 -0.08830379097621881 1.3932537808160537 0.40037686654651655 -0.36505406302426097 0.4471347505366347 0.03796759727916012 0.28342056310362496 0.07310145375403142 0.16908174044493426 0.0785195611120318 -0.11219235610860684 0.272081446623007 -0.10196312022271972 -0.36669649475812693 -0.21646105119781936 0.09387000561944508 -0.16397373497168932 0.3992356167619263 0.13155166315673567 0.1938322304515237 0.09582993457295112 -0.42746450399324454 -0.1702145691315354 0.4773812082128895 0.13051789518359924 -0.38236870744688733 0.09759962996483676 -0.7646993579771305 0.034999493543502125 0.04922491898172172 -0.3379856507361169 0.09379488106541106 0.1291581130953786 -0.09086393283522753 0.1252416275975267 -0.5105058672980551 0.15364682984820083 -0.6616628789276394 0.04858885336667069 -0.02209458967258118 -0.03829587872299134 0.7969794847417665 -0.15267587017487988
9vg7j,-0.08991135526150948 -0.048361007668957685 0.35015480081636485 0.08204194860135397 0.03195828046546109 0.11233375796607906 -0.0005293611262584732 0.3894299460457964 -0.4308200402059555 -0.006314236594213755 0.4465024149083671 0.09888564677059535 0.09332099000833917 -0.07688528079446898 0.4404106581753394 -0.308464734674102 0.03590955289959902 0.007909658507321475 -0.23707662110297228 0.23896704918837758 0.45361307976753457 0.15200135837120207 0.3001958029787931 0.13152473187018204 0.21551472278782113 -0.12872714824508963 0.06399360371582455 -0.18972266468486174 0.20514657911854084 -0.1714926963355215 -0.20976920035705793 0.33479523615851337 0.006162007807879866 0.09427249589391358 -0.1663098326869343 0.16471417685185694 0.133871219554209 0.031130877958377646 0.010706906359986354 0.4369948317221604 -0.2924469257151172 -0.5363578683745645 0.06431045115851465 -0.0658754283457298 0.14150567775847744 -0.05557709446152879 0.15156795898767153 -0.492275067156188 -0.018740139036150846 -0.22619440516091713 0.05419336938658402 -0.13663158945624043 -0.08343280555431133 0.7952928401899794 -0.12494704652380283 -1.7337746874395106 -0.12317247251432553 -0.1753989756797423 1.1584872603772678 0.34517483768808116 -0.3378765104699523 0.2520806597682255 -0.03706448867772359 0.21383182565875675 0.035383092913632626 0.13525262512262046 0.047096324229117616 -0.046404078638313494 0.2335711971086735 -0.04468203600130926 -0.3385780557830888 -0.13966315745554228 0.1082500120018949 -0.12076578631966935 0.31355123271642543 0.008393714704980558 0.14551367049195596 0.11664331453943651 -0.3291788169270216 -0.22852942327578038 0.5145783544836445 0.16908258790636732 -0.2531992326156806 0.17360764554739389 -0.863645183904037 -0.07826452582972901 0.06177299676818761 -0.2551099284003928 0.04123924832720691 0.084096375156819 -0.11402382987279543 0.16342838609383456 -0.39057174548283435 0.1886435743381815 -0.556565189565578 0.049928003837586346 0.10107208697031252 0.04179127901507504 0.639381343418232 -0.09604718638207427
9vg7k,-0.08646150366654085 -0.0546757594513379 0.24300727616093673 0.10736838369709822 0.04787867251945314 0.126087589828644 0.0395000265779618 0.350199442797983 -0.4844596761207586 0.0224593030537829 0.3782697474199397 -0.04197430752414326 0.1106262879839763 0.05502105781837703 0.32413015284013214 -0.37119115505965944 -0.00941467537737632 0.04761451189477142 -0.22884776298081988 0.22439274171771273 0.3678414451639281 0.08676739980265254 0.3301766349836343 0.08480286568370939 0.26930156321802473 -0.09871128965321622 -0.06497398297634846 -0.1869068556356227 0.0476869865004571 -0.01471215502833252 -0.22224614545742719 0.15406353997755642 0.009566946836734693 0.1567300920791259 -0.2502714765280201 0.12591717232479493 0.12437975191256533 0.12904886429579665 -0.013000760992866777 0.31286997978875764 -0.333256018725644 -0.43215391719735674 0.03826988039839417 -0.14045268659658194 0.16004947490124255 -0.016472658752656258 0.29363456739737726 -0.5393860740326092 0.116745014682554 -0.19874091043021794 0.10951023461273848 -0.1624114693214884 -0.07933186765394418 0.7413007070426281 -0.15741526853013812 -1.6814284946426605 -0.09611112768098087 -0.1421022332221417 1.1216546817910429 0.2862243618101221 -0.31148836982802014 0.33295956681188 -0.06283187250606043 0.20894541596383764 0.04668000771023659 0.08396497236937964 0.0020986232473016266 -0.04591558382624307 0.24412518223414595 0.00033183257083399705 -0.3012389963775793 -0.09730908495780712 0.0701060858105099 -0.13693530671483164 0.3754737995839089 0.055619620398812714 0.14180462961316784 0.06111600773404099 -0.27537001977383674 -0.10507246120090687 0.4008421094731279 0.1895290356550123 -0.3304547565419419 0.20873448324165303 -0.8627083829986405 -0.12177323623596269 -0.00024161376960500636 -0.27474794082537185 0.11956625306481025 -0.0050859563818509874 -0.1723309013855556 0.17308372908494035 -0.373472815436512 0.222839030355354 -0.5924762591278616 0.0035529674601284546 0.10421177627458544 0.04843999550018658 0.6107131257173585 -0.19475254703625036
9v6ms,-0.1271943204876927 -0.12999209255842573 0.3279522509544869 0.06823471645418717 0.020427508428720254 -0.056776138577959816 -0.0021660468736724127 0.4655656217858694 -0.2992122938966023 -0.11433633567319608 0.3735610371089376 0.16509178195858207 0.09278686565478228 -0.007642233231709508 0.3673175602044672 -0.2355652163254098 0.282852501232992 -0.15180966846245939 -0.264404542806089 0.24728401018484966 0.3627966584554412 0.05491711491014062 0.24876633853183058 0.137313074937314 0.32961159494621717 0.1160960190083188 -0.10004906138822539 -0.13305224936485105 0.0259300868336366 -0.000631251871313145 -0.16947421776276933 0.23355685096323486 0.08783884108643446 0.2743960005147546 -0.1541443376657166 0.1551541464912679 -0.009793647200781616 0.17743344925457527 0.1943277781858871 0.12266544353128463 -0.3147145601657106 -0.266008021538282 -0.08477826470743893 -0.09041115193481808 0.08906886208320285 0.06967434819852834 0.09755697944201748 -0.2775905667454172 0.007515112772114946 -0.18588926611848577 -0.02525275567658753 -0.13732333365031 -0.03269436098463925 0.7427076062502638 -0.2436391619555055 -1.866336815660152 -0.09885742132422744 -0.09629560905903108 1.2046308052193198 0.3317349077258818 -0.2630150870973843 0.5455195802243613 -0.045961725437102016 0.1265482702930831 0.17916842417768386 0.03213022070666819 0.13985732216646865 -0.07109111230405529 0.20440862073275567 -0.057785550206487686 -0.21969668819533614 -0.09475782007807897 -0.0114229031232988 -0.2263875500433276 0.14804634504284342 0.003593206072217083 0.20739588885017224 0.21081327124077512 -0.36750497742775357 -0.1346614039586865 0.4459519033644064 0.08552226685369835 -0.2191936845607101 0.12392646771117634 -0.614897281498529 -0.034386963329545335 -0.006193718065313438 -0.12237371725965168 -0.02901558135571965 0.0515378599763914 -0.14939194999283653 0.05366798314369531 -0.35596187023226816 0.4169735106170598 -0.4364384410722272 0.08500311345166729 -0.07837244902369388 -0.03453989099076857 0.6670940100363494 0.022718818735668046
9vg7m,-0.06963924003427242 -0.06863295428762141 0.32809491720443545 0.06863611270842074 0.04771121008906031 0.07925965560663983 0.010490037705931156 0.3922515949034461 -0.42119062922776146 -0.009359819164466444 0.48070001267143736 0.09522589965479955 0.09825963947286379 -0.05469973496078361 0.4269704267978555 -0.34221324259036695 -0.01303888353563707 0.0076627803159756945 -0.2315884871163176 0.2588157125459469 0.46478030569167084 0.11299399356411027 0.2977794045674507 0.11707821722997312 0.28306248175926285 -0.12394978302612418 0.03846094166368092 -0.1857478350279103 0.24167202002100413 -0.1379880109412645 -0.20927614289202648 0.3251582609738516 -0.0213038643128917 0.12699238228727047 -0.16539674742112198 0.18240918145409016 0.16165190600164003 0.054626161793879566 -0.01191922255472362 0.42811710301064826 -0.31522889321230607 -0.5284213877558375 0.07450039537628377 -0.06933699429894598 0.14273929655094725 -0.07119001269948343 0.13595506248719205 -0.5009900325838561 -0.0018508711928161047 -0.2214624468423851 0.0981770905077635 -0.11730566442430491 -0.0855161567272833 0.7843214385170616 -0.11922510106830314 -1.7956474256305441 -0.16999879933931858 -0.14839627871870015 1.1821649742617313 0.3647599946563024 -0.3207307738517699 0.28066618206738236 -0.03726780899773818 0.2009477192424048 0.034049368554876655 0.11027331240043586 0.0394254567232238 -0.036906722116486844 0.19660279411336287 -0.05259314597482216 -0.34529257858258644 -0.10968356787593665 0.10385305166059283 -0.10817745324962533 0.3319410704948594 -0.0284542628882361 0.15595942347131775 0.10073969856070293 -0.3311213635629335 -0.23432678378945543 0.5177163399044744 0.17819229137782905 -0.22904017378088345 0.18211143108639327 -0.8872090635383488 -0.1143609938851323 0.037638804413711695 -0.24564595659193297 0.05780382093218185 0.0655428496339555 -0.13109131557407638 0.1724026618066925 -0.3749034392764559 0.1871189094375765 -0.5616120365571308 0.0512671421349509 0.0937621826794475 0.06002713699713027 0.6171484666342562 -0.10456627260547194
9v6mq,-0.0034111474607405666 -0.13711575743108237 0.29255020348765204 0.09698294675090258 0.02676042710885144 -0.013152172724692844 -0.03639416738173133 0.517001687287998 -0.30149329926017465 -0.11011601875351547 0.38463978607165217 0.14298428239828773 0.12546442692093984 -0.027745114730600498 0.3201596173366821 -0.2756813862460921 0.18454956510053397 -0.04958390013769913 -0.3171003170191695 0.14271302526401528 0.4700687952716921 0.0712484440588583 0.3273320847622245 0.0838378847426402 0.36030894990592016 0.07887781843811394 -0.09487325848077419 -0.06387490096371835 0.025163641474797917 -0.002228924463696118 -0.2697632153812703 0.35818852279594743 0.14415446924122527 0.17531646412018642 -0.19771277433963308 0.19710430772635293 0.03021496633060924 0.11702295931318159 0.10554861510390565 0.27468734596846467 -0.24982849890978806 -0.4229617397594508 -0.048703062847315834 -0.11944206584556552 0.1486930486579349 0.02059313206571074 0.19729367582742632 -0.3785077637010463 0.08946740411790079 -0.19429100102614927 0.07275997810465831 -0.20068054687468406 -0.06869022656537073 0.7708283478073779 -0.22095506289334033 -1.8234412896282894 -0.21131726708058093 -0.11534549138538788 1.2433957730930594 0.34884037461193973 -0.30530231756434817 0.46402445599125247 0.12277779327686943 0.17960363170252955 0.11306387571334084 0.014608843641697856 0.10896247287983453 -0.07335021812910875 0.19929722344163509 0.013710408586946592 -0.3517331321817658 -0.15454375905285422 0.03902157719713546 -0.2484453318546683 0.32692358516414755 0.036540364487658024 0.2924123323503568 0.11284211637854874 -0.34286758404183426 -0.14737588744584362 0.3850247090551322 0.07731224977749789 -0.2566087134919796 0.09547337742856626 -0.6706704058637541 -0.004224649751041572 -0.05343632106614636 -0.1710331303063478 0.04336358687177478 -0.019927623863631345 -0.1812524989777019 0.09595505347165037 -0.357625368202595 0.2375897100025754 -0.5180644748100812 0.06974037078033928 -0.030220658703328407 -0.014688487666544195 0.7034319372576952 -0.017384865255698333
9v6mp,-0.07698461360494446 -0.09679137049666367 0.26259077806618536 0.07713272000755919 0.03305026078857686 -0.051447020481234895 0.0005153692475567092 0.40689747096086065 -0.33079629596767673 -0.035243913213890934 0.4150640067646411 0.09892448262991212 0.07445368352118822 -0.015784702821888968 0.34915906974547856 -0.2595060222669221 0.07193147433409705 -0.03227735056508882 -0.21554633239496823 0.18488237995150608 0.3836300158306508 0.05512613805553359 0.36968806045427494 0.1716059504651462 0.2940741925288495 0.03888063103290805 0.016826438533274066 -0.1365213867235061 0.04513269764708961 -0.021091258651688323 -0.3200136836518901 0.3436730568592481 0.02792367501582297 0.10999735862238161 -0.18181379649194537 0.17087066287512534 0.0702819288688336 0.15398800618685327 0.06196944342987822 0.3209289173737522 -0.2976829278981135 -0.42176238001567334 -0.07932124575895201 -0.11861645660172739 0.1299586173602972 -0.03332863597104324 0.17146733505248157 -0.4483298509893989 0.029970934404014923 -0.22924026661030938 0.10744493489837571 -0.1758133786298678 -0.1344334838451703 0.7566609793241461 -0.16430625283801878 -1.6937851606313803 -0.16141350078167513 -0.1258322533346419 1.1627134770827907 0.3148458911368061 -0.25545693276084164 0.365869641015551 0.0474170222597006 0.20325156200674147 0.1401980331209156 0.06281574971073244 0.0778863187656302 -0.04751613402778859 0.2800404595380097 0.03758519672071169 -0.23461536417818116 -0.08928336078101155 0.009587654359415 -0.22604790544139605 0.2897230327617173 0.022889433555655887 0.2225771696657338 0.08523537186985763 -0.4025775254336078 -0.1605362173563998 0.4292068186883259 0.054332602614726166 -0.2765998873299306 0.14363808726891558 -0.759981527547992 -0.028167224986367503 0.006158519738173747 -0.17176941244505953 0.014998873658755917 -0.0636923273025211 -0.1828183376175721 0.1466156888924623 -0.325309628266068 0.17022964370334012 -0.4403530451040325 0.14370968619085578 0.04200177878582917 -0.07367380890327745 0.644129588575974 -0.01605645179823313
9v7gp,-0.09645023818308977 -0.08200833991326868 0.4152465570620975 0.04825327769282573 0.0764669862137401 0.10196393117873727 -0.013833160288954637 0.5032954306462736 -0.4530037619724821 0.01799002136893941 0.37638973295369943 0.050243975027646125 0.13842348488227524 -0.0204729426997735 0.3776164250267879 -0.33709732834807793 0.03704893071677487 -0.010033054555604272 -0.24633624517882452 0.20879912509866635 0.5192132977202472 0.12847827909379111 0.3476570907205708 0.16683647748991987 0.29676950982211875 -0.09765064967096264 -0.014413571925545819 -0.1618598572073673 0.12386368595860621 -0.115222447848776 -0.25171672966008235 0.34410316151728654 -0.0025226546861502014 0.06258793201128157 -0.2245955348498816 0.19582746114459598 0.02444227926855837 0.05976956822203792 0.024765015386792776 0.46840554295082093 -0.31574056603288786 -0.537996909483196 0.07034156460889503 -0.047409644762348324 0.20491654535726703 -0.046076266994035046 0.2547325559576296 -0.646325933724959 0.06039952681979815 -0.25056684213093106 0.05828270763524561 -0.20790812967124483 -0.018442737850730133 0.9351299266575058 -0.14326635845194427 -1.874866737935639 -0.08435848816662485 -0.08270255490223391 1.4405429855206686 0.4456348597753545 -0.3728577278534656 0.3786758322070659 0.006502048446179881 0.2806257222481461 0.1714361339115923 0.17239439764348657 0.0376581771266529 -0.09820972823832431 0.2991504587684302 -0.06746129885980937 -0.28148475892227887 -0.24089051731856578 0.07514415009019178 -0.12794428029403865 0.3614371726071235 0.1500875982500656 0.10494129812487595 0.05073392051767805 -0.4493526534309245 -0.1841470816806913 0.5324640570452077 0.10210752239959545 -0.3792173639200363 0.1087546118802122 -0.9048828716507226 0.03227581263015773 0.07401977193982075 -0.2807535717567051 0.02308780088037954 0.003631539385174936 -0.10504304780425328 0.2290630629424601 -0.5064439115855676 0.11345399036800588 -0.6441109563423445 0.10295830663147078 0.033462625848259736 -5.142659387320038e-05 0.767961998196774 -0.14122313240310397
9v7gr,-0.08397454883133064 -0.09523157535830133 0.43344815577107554 0.03757875479839677 0.09263908709968688 0.11293116151376727 -0.027212433384574235 0.5166452367395727 -0.4555823430264918 0.029959637811615855 0.37702298164227255 0.058892510705036386 0.13867533340276747 -0.03918015094752388 0.36588045608148984 -0.3517144296364485 0.08148197209507593 0.03140457698838025 -0.24132154203690523 0.2507543750299023 0.5509763954460613 0.16687245302380296 0.3474418345351446 0.14524817275307395 0.26322282485533355 -0.07774142510665444 0.0077785643988004345 -0.16553129400872996 0.09576932753054589 -0.13420400444537656 -0.2331959938199691 0.3644856100294927 -0.0026249018944498686 0.02806166016901549 -0.2689400756817 0.21925042966278777 0.06193925399181119 0.056011930302067595 0.04206117915745635 0.5166275026034616 -0.3210414973865623 -0.5658559541486586 0.10324433500114513 -0.014604236968171674 0.18772570081388665 -0.040811384821428015 0.29316721241574667 -0.654322455747149 0.044392483357878265 -0.20955509604633585 0.04019964554912944 -0.22147897129606017 -0.019331645513437665 0.9780388799017001 -0.13392324475405917 -1.82874321905248 -0.05996120402664758 -0.086530341052328 1.4639241600098851 0.43250097642463253 -0.3680373569886588 0.36284373206769177 0.013807020805943843 0.24864678899552287 0.1745235014392945 0.1952623909876729 0.04259813042673565 -0.07180291215972787 0.3190793563674054 -0.04698486673486859 -0.298024567279532 -0.2671814334376793 0.09905777855389872 -0.10255836694342628 0.37086444450119277 0.19105250231118848 0.1084798414621569 0.08183354491679863 -0.4780061339529515 -0.19425342685539804 0.5439367458485455 0.07151834263441895 -0.37126031562914374 0.09308304413121528 -0.91602120571521 0.037232307599736204 0.09493974200709512 -0.3255550530944745 0.005265291122662005 -0.010609676784836776 -0.07346738349465637 0.21295438396472627 -0.5455073357860295 0.10166154965025884 -0.6683263811495187 0.10299563051385098 0.07026344465033375 -0.008575531898196435 0.7981746332551538 -0.15791995249543794
9q5fc,-0.0036276528626091827 -0.14072108624007096 0.37396842224263893 0.012977877412526716 0.08704577905040205 0.07204891320243922 -0.0891966251341423 0.45840311317194643 -0.35868431922242655 0.032479975642344866 0.3465512674407075 0.07861095401016953 0.08846574850549971 -0.03839382272316997 0.325441728926447 -0.33791654427889206 0.09186334869898688 0.002480207670684901 -0.22389646377216743 0.1832403294505474 0.376126301509095 0.08168071088448568 0.29824290636529643 0.13396455601805132 0.35978220946368067 -0.01885966401077737 -0.014248908322430764 -0.19066961587249295 0.09454363808693486 -0.10114361083476074 -0.22469304817323474 0.3164223066883846 0.052676048547945456 0.07665496534247619 -0.21731149907470176 0.14110848229207162 0.08648283778409327 0.11667978691096317 0.0327501959853592 0.39028865914744837 -0.30191377160294625 -0.49993717809096855 0.02208512497219947 -0.06100732921775446 0.16046014718748527 -0.045539448616539094 0.22557039038637777 -0.5414817039432149 0.07917624041206327 -0.19466328772342212 0.09262736170710802 -0.18348849410525273 -0.0756997127959678 0.8540273724204192 -0.14994454397532833 -1.8692669880651478 -0.17932732529000445 -0.07540574532705134 1.3284059471573584 0.3551658543119861 -0.3401747977517945 0.41870698618668095 -0.04682617050320513 0.18871075430814943 0.08731399206196588 0.06930607246271686 0.05052207360679978 -0.05798624270195098 0.18988822618481904 -0.034921988891101235 -0.28672679730974104 -0.19800506627609427 0.08051023042558539 -0.17114949389365242 0.2970405543165222 0.0720820489714247 0.11569951210002347 0.055482196927606225 -0.37433186264832163 -0.1887090986207539 0.48212981226769913 0.11621939546659328 -0.35322941171281436 0.12419895390746985 -0.883306747415269 -0.03983589673941805 0.017654996999254543 -0.16737907061480958 0.03288773067762812 -0.07058482979413054 -0.12516748257518648 0.15116681979924074 -0.43387504388354226 0.13246681142258698 -0.58543841136228 0.02642434133279264 0.01499263609156615 -0.004865512451885174 0.6720269032075682 -0.10942854685484373
9q5fd,0.00880328824805962 -0.09575704391664572 0.30321012403736297 0.03942353060981855 0.0441165686758657 0.04183707313440472 -0.10589521624735607 0.45859278259141595 -0.17818365329595884 -0.049923899688222625 0.296105245634943 0.14951197754139645 0.14209597570327032 -0.10634559555528172 0.3438536697130605 -0.2705769415660868 0.21904095355266437 -0.0005233324260681221 -0.24544748732641344 0.15650914945069666 0.40192449070766145 0.04956177357356323 0.2580903231218777 0.08848783118107911 0.32500794503386826 0.03444591951266301 -0.016541650073959323 -0.17493367497426587 0.14193137274619425 -0.08736001952051836 -0.21453074156379254 0.36554129127109125 0.10859203292750574 0.1516314257886639 -0.18202806386728201 0.191464078553026 0.03991729459298863 -0.0011684274666726863 0.06225514372465143 0.30841638761703083 -0.2682360086138756 -0.4612260048927583 -0.05337730157667628 -0.09587700469383205 0.1649640163904574 -0.015972729390282804 0.15438623574617774 -0.2916625824132068 0.02191939335470255 -0.15143837977990446 0.10907896268689721 -0.10962807093733942 -0.04606780419981152 0.7660432944623514 -0.18674979179758616 -1.7782972724678023 -0.17416402907040157 -0.08165598342104051 1.1872702312242298 0.23661062665270174 -0.3631645580463243 0.3698623528581944 0.013032878133582853 0.18899297847275268 0.04865046598363101 0.03154704752182566 0.09074551489602192 -0.03951784950593738 0.09821465986277776 -0.0667579343011241 -0.3415811295476304 -0.20670202031158183 0.03745802569114881 -0.26283325671501423 0.23570234668177112 -0.07162584425407441 0.1671702795748724 0.1490509759191532 -0.32978055110168325 -0.25931010006401084 0.3992780004088747 0.15779027839459123 -0.29001868675948017 0.096642011845467 -0.7742925618428204 -0.012252031653920515 -0.009554541115043797 -0.15082577197939312 -0.025990890796106975 -0.025118249029501327 -0.1383555236838759 0.10315037736271389 -0.36952665147370006 0.21624441635998526 -0.4600101604893477 0.015174249489980607 0.04847674079164274 0.04734212150713198 0.6873826261622933 -0.024186241964710118
9q5fe,0.04912557625905255 -0.07893089457662206 0.2603365815868231 0.03353767439878509 0.09243626817002909 0.10976403983816808 -0.006526748738042416 0.41006103172333913 -0.31653016806916034 0.023794580867077496 0.2883022499334594 0.037377119198924 0.009110663558107064 -0.129511071282783 0.22648633141476343 -0.2878937894139277 0.3054087506520221 0.11810863141803186 -0.1959751680127482 0.21743920445866768 0.2766718414765598 0.10542629528299388 0.26126010956458173 0.20097355721413793 0.1751090321430193 0.057579226861354554 -0.01374057084881317 -0.2082985761831525 0.04347364158413769 -0.11481420225499181 -0.2349981114976876 0.28944528067429753 0.1489095483101059 0.2282567088576683 -0.16870203009953497 0.1627748483872228 0.074250533545011 0.09177415702617335 0.08193342434189543 0.19020733137894746 -0.12492074602551109 -0.44218306828926013 -0.09747018850334496 -0.13396574965166416 0.15108591758999007 -0.02288179035067269 0.1723547689925838 -0.3686660836709371 0.020039142020094467 0.006722201652340069 -0.009855404178675557 -0.16466872611998054 -0.07970102054823393 0.564809539428605 -0.2242194388608237 -1.7061327791027907 -0.16430586690369853 -0.01528445940344221 0.9964845181797198 0.22280724737211666 -0.43623655889639196 0.375547090877745 -0.09669584632660068 0.05040545153904027 0.02614112460807462 -0.012839043895379187 0.15561102811260646 -0.05135887165614841 0.1570527346577178 0.08163318951997899 -0.21474401649951358 -0.08717635967180279 -0.047503733687232756 -0.3047840737137946 0.23388199114689628 -0.06621647620529894 0.14253757475040324 0.13809875825259207 -0.32125228005555606 -0.11701785319032991 0.28877197237026464 -0.03224094377061465 -0.27247067618084403 0.1292799295728351 -0.6749660840950935 0.046960378367257555 -0.025095394605184132 -0.1727791996126038 0.14926033432398245 -0.06699809777041935 -0.16575361769254923 -0.004020000343043808 -0.3095526539196115 0.27381313396514895 -0.5280858454502343 -0.0048659512251331095 0.04464961221954419 -0.010290719930387339 0.5575067635432039 -0.03591147039518733
9q5ff,-0.02308683706675308 -0.12421469548406824 0.2732266771181923 0.08579955233202156 0.015616914769730695 0.05095469310899605 -0.0810914253344586 0.4524704732557809 -0.2826379293449887 0.010213303895287195 0.30713396000517923 0.11020876108564055 0.0506030001781561 -0.04114472764076363 0.32725014908860983 -0.30580186052914055 0.1397216061851259 0.024894343435393783 -0.22346038002305849 0.1438029169302042 0.38961553380120323 0.08188408516982157 0.27330166972415243 0.12427591684260439 0.29317881978805654 0.008125425468811974 -0.03524898359454755 -0.13595217180503716 0.10248033480156961 -0.030461221557531566 -0.23499649571799772 0.23971451182478287 0.05015809980150516 0.17080266671582545 -0.16926637488634166 0.20086877253040777 0.0927697475296907 0.059491887371803526 0.07876277674894869 0.31422730901768176 -0.24316351039363232 -0.3753470666090735 -0.04995560455298606 -0.12073403967373858 0.19104891502531401 -0.007530631011278544 0.1760305894159445 -0.317504706932673 0.09626380003264506 -0.14691747491826412 0.09355432735254648 -0.150978329054649 -0.0860814425286697 0.707803921906774 -0.19532055342842838 -1.7144986376792608 -0.1385221981076714 -0.14344199009885455 1.117290458504086 0.285113672820513 -0.3236904872464583 0.32839692173858653 -0.0016034250625533884 0.17158714873028885 0.06777554082494691 0.05265434162720882 0.07225798011678529 -0.061283706213545064 0.2227594255672551 -0.05468371863607131 -0.32649581297613184 -0.1588149911173677 0.07005870065667691 -0.23028410296815216 0.28485918760487383 -0.05242597809001222 0.23333671741131465 0.18987728204566687 -0.29889349179419794 -0.1985726723304319 0.3575973738999494 0.14811488015739308 -0.278720186450243 0.12646783916147747 -0.6954003638538372 -0.07061194445473942 0.0033586019318660766 -0.19935975976784762 0.06448104053317912 0.01991928200955272 -0.15905601783705578 0.12697849934585323 -0.37378740596152493 0.24192558255816302 -0.4860767640014501 0.0018507629107639022 0.07013229458023522 0.056771783349670576 0.6064517091659705 -0.05002875209620021
9q5fg,0.049477859391445424 -0.1652341492160294 0.3104784699042105 0.08765799988745242 0.04777616131653629 0.07021222560691892 -0.026259940621078025 0.4876019037431931 -0.3122466786959588 0.07652134883090406 0.34887955850766 0.04361673389445971 0.048836973090028775 -0.1535872081296474 0.34150689869882744 -0.293016562602195 0.08803830076926213 0.04058558931625985 -0.1579672450000954 0.11784731141092601 0.4400721879343999 0.14129902380314902 0.24083636980511108 0.15720732290957093 0.3326605149255595 0.04512205645321453 -0.03627915575757089 -0.1237247988603401 0.04073744388916481 -0.11145179609311807 -0.24309845973496633 0.19535196933787072 0.025440558892060462 0.1634752728552704 -0.20910132707866805 0.192042247724876 0.1514445216870616 0.07893050145937214 0.07947342947249116 0.3745492771762066 -0.2620463951846424 -0.3591771849324732 -0.04170368289876551 -0.1457344615599814 0.1994192262474714 -0.04079688829578252 0.2195673259080703 -0.42861245655454444 0.10619425939995217 -0.1596148534791424 0.053461910091283114 -0.17775160552928126 -0.14500292732258838 0.7361080719745249 -0.12616010970996727 -1.6354591130625835 -0.13525556837379557 -0.14313074623158417 1.2120909560233244 0.2957733847016792 -0.36188990041599206 0.340969360304592 0.002389830388777971 0.16107474263477306 0.07351684313404597 0.09282283330782284 0.07310991101149994 -0.09136064172245752 0.22336301604466444 -0.0447249086432961 -0.3123820114825472 -0.16554842450499663 0.059780653881385336 -0.21305966170745003 0.28819081507264277 0.00991771806976865 0.1801782108945322 0.08331646480322533 -0.3235309908490984 -0.1607003083425436 0.391549751167441 0.1083104840369567 -0.3188846098232014 0.13119093070833757 -0.7383181948888317 -0.042423089694172474 -0.028938028466103136 -0.1615688248688725 0.009221913939123926 -0.012714434987366586 -0.1738191057747778 0.17412477145462335 -0.39198285337538336 0.13369892152570853 -0.5012919443239945 0.02341273999207966 0.04634996232299285 0.09228650220888465 0.6315496148044841 -0.06161322382762466
9q5fh,0.03974960823734993 -0.1505167950861294 0.36699726430587887 0.014060556157314953 0.07709149640091968 0.09158300093001241 -0.05599897519872958 0.48683128390394254 -0.33220764290261295 0.01706711660006761 0.35289671450377663 0.06711418663779052 0.08321009161794167 -0.05967813404443462 0.31822356490880166 -0.34209018370139965 0.16386634980723513 0.028384148162567856 -0.23451816406298806 0.1814859343669112 0.4319801545607094 0.09877086398905105 0.2470937237714984 0.14131535363734057 0.3744616201414984 0.01985680512507502 -0.007643281280032316 -0.21291819963042444 0.11747282778124435 -0.11969330142787507 -0.22016496295554233 0.319429243724732 0.09102071713282325 0.12804505948657371 -0.2169612963600386 0.15636627677806178 0.12152017104893237 0.05153143497696474 0.05550016666159496 0.39378938272515107 -0.25805001004980027 -0.5132705507037104 -0.023232020150216404 -0.09545649092641967 0.21988512650128952 -0.05614599043273514 0.20512794570655718 -0.5387207398963627 0.025865669884327966 -0.166441609371279 0.05191047146491535 -0.12841204413022225 -0.0922957316178577 0.8195666363717611 -0.1712696711628156 -1.8685060612408484 -0.1530403776749975 -0.08413321188391774 1.3001725347192938 0.36681475335087027 -0.37760118113612207 0.4065871861237395 -0.06778211862195277 0.11321789190654691 0.10084290150996039 0.0761835193684934 0.050314705636004514 -0.06840147349534019 0.20184767118704247 0.0033550373015317422 -0.26492622907433816 -0.17304435095988122 0.05259239677474313 -0.15302585574024555 0.3219598244557238 0.0443475488352479 0.09411505310743278 0.06507006348680303 -0.3887664053529156 -0.18752417711813743 0.47011455938126745 0.0799996932930698 -0.3538244778887247 0.08801831845964893 -0.8520845638366986 -0.011466987325096156 -0.014418055705791343 -0.18067564668839894 0.059577342907783 -0.08193160828297845 -0.1094095560289592 0.1111783083430587 -0.4498506308895486 0.15259327812108262 -0.583476934229157 0.05639649642513329 -0.02430128628031984 -0.01012674821481063 0.6821397198209243 -0.09701797931882059
9v67e,-0.11296549843315755 -0.13211827984308236 0.24603750374581204 -0.01925698098313836 0.030218786499972547 -0.02911316102597902 -0.03490071174026472 0.42548095422249677 -0.27598575391744934 -0.03431876384906903 0.33869855115065634 0.21258224190558578 0.23873297417476796 -0.010283280516284932 0.23203461827511399 -0.25653493773685954 0.19397773301340143 -0.09653391198165541 -0.28845298809455155 0.08817807992420494 0.4480570975503927 -0.04154345529192069 0.286622346841874 0.07191985948330314 0.3435404253254243 0.029656594130554177 -0.1339189768275938 -0.025762473041961883 0.05084615689844568 0.13530883909348052 -0.26181726794914045 0.3016882032267809 0.08132969232053607 0.21509114132201898 -0.2934960701178118 0.20756280797083537 -0.021158768877904122 0.2219474451941561 0.03402037169151975 0.14318336814000107 -0.2072598043722195 -0.2871554658043609 -0.11062066864804745 -0.12885899277338386 -0.007878884492640193 0.04833221194732795 0.04282697481188553 -0.2907315196716922 -0.031972256218542314 -0.3471817797989784 0.028300512691547222 -0.09150911187043448 0.05323288159691327 0.8035958972647882 -0.23297460135662107 -1.8594058246786949 -0.209813467347998 -0.09564082854808592 1.2252539040616246 0.39854963773274005 -0.25579338354204434 0.37105775890454223 -0.046921989613884774 0.2695916357390015 0.3047814633094414 0.08109527222977427 0.1085004938748833 0.026270908878453344 0.1437381032195035 0.09163589907453176 -0.3325523031883342 -0.19689641814549352 -0.08208117815126048 -0.3444198551246774 0.14284641723512934 0.01705678691300049 0.18139353151535123 0.20654778212500688 -0.5564885340322403 -0.19313991848217715 0.4893069194870106 0.15684579545229854 -0.22185510358378646 0.09973472347723403 -0.5907742106692481 -0.09146270125995494 0.0008346396564508159 -0.03878015842313399 -0.1005983606291536 -0.10784256079008073 -0.09260181529823695 0.01366923196792443 -0.25487796382160716 0.350532357628934 -0.3426687610246059 0.15685113989536992 -0.033417243690613496 -0.05284913707227989 0.6325854579941781 -0.07335763148788929
9q5fj,-0.011929002332598826 -0.11763046420371205 0.2632674564896336 0.0364595249491587 0.06064530368121906 0.0630354254821349 -0.0724291112609279 0.48718154771207256 -0.24809545028759453 -0.011532497790392717 0.3550679652081209 0.11332774519184026 0.1035005642073566 -0.068121339953642 0.3470572034728293 -0.3215655198568364 0.1287751424567686 0.012084497224304644 -0.2600920275492183 0.18837496122921912 0.40652090454495216 0.0455185934532 0.2926524247779084 0.1890414213783098 0.3150525471267726 -0.0006382307529104647 -0.018281067422564985 -0.234109649104465 0.13610233830010032 -0.05529181857604228 -0.28412227526164424 0.32418144435839535 0.07075904841614053 0.13092912285131084 -0.20403696968390156 0.18656250437207625 0.07855358713422941 0.06148222490386453 0.09406142021987514 0.33820004029165857 -0.25389898450796755 -0.4731143018446523 -0.009320935539411056 -0.12803695987280503 0.19131874998115664 0.0002665653099416884 0.1324797388287234 -0.41747524410305215 0.013364515507567004 -0.2260413199800151 0.09516145732905806 -0.11886278382452989 -0.12248083343153758 0.8091383849498827 -0.15590299793338042 -1.853550624406362 -0.1847588608285521 -0.10751756168382169 1.297737880812976 0.3523198456697702 -0.333329725474096 0.3755801914423722 -0.042445093406091795 0.1686424455092164 0.10413843151256624 0.01599810232124204 0.07800848368849146 -0.052212780745681336 0.1856018344848703 -0.001015259073877443 -0.2711932953453799 -0.17416665257170102 -0.0015691202332647801 -0.2679201967838146 0.2729441092172728 0.01623898328301067 0.17896975137298526 0.12742865851051116 -0.4283363510454289 -0.22001059404552709 0.4616786371906835 0.09817133990313874 -0.3565199187463734 0.0998374618796119 -0.8349981517942314 -0.0812444075401655 0.0016352908659018862 -0.13187354148817396 -0.041212005030934196 -0.05215525730067761 -0.11258350756227753 0.08998346072430825 -0.3800525337863715 0.23800874296427604 -0.4976317375850173 0.09371470451821592 0.005073298932404962 -0.003247886865205848 0.6758898887207901 -0.09386337607716988
9q5fk,0.021304759940176585 -0.13497047205529034 0.3313425138570097 0.023459687283080004 0.07367187167193955 0.06987959084634865 -0.029023574329514093 0.4755131429073597 -0.3608643080406607 0.03714059344393515 0.3493106699155471 0.037848856987706674 0.06599697142465982 -0.0945453599681032 0.37971347342239326 -0.3560683883330972 0.14172005822701003 0.06338075301157348 -0.21939116063633118 0.1915747228031456 0.4384928405253376 0.11304255805730572 0.3144790273791954 0.17339310547589704 0.35116959840702733 0.0010804575627123521 -0.052056442292048734 -0.2143637743630067 0.12819434438867952 -0.08257482826591195 -0.2543409232635948 0.2923438433442944 0.06905861285494885 0.14241587173096296 -0.1952829319193234 0.2148151278992584 0.13974599797850837 0.07280173213684865 0.04566242165096083 0.3525254007617614 -0.26296783950812525 -0.48258274199969453 -0.005511228369578886 -0.11051686286263196 0.17062254304689217 -0.029951540906125965 0.19147985133912218 -0.5494197630889002 0.06892408598305846 -0.22318075419048783 0.07835353072514284 -0.16877615984584157 -0.08791071761009658 0.8449548808639756 -0.14887888377160427 -1.8794899534093483 -0.13102474932392633 -0.10081130132281957 1.3465684985810238 0.4215882153005276 -0.3394350137516633 0.4146006423698666 -0.07112809257655096 0.177001304721965 0.13356726025552193 0.06408630732335725 0.06777626346510927 -0.059607288472759555 0.2472992384624327 0.0027885530385672887 -0.27950655807056546 -0.16608020493676676 0.03788578108503201 -0.20832324214737835 0.3139998095797985 0.069067016879857 0.12853655948345516 0.04512499618405523 -0.40224515009723777 -0.1350221190882356 0.45927405319804726 0.09645895419801932 -0.37685651254625296 0.0952077677658287 -0.8859247209956901 -0.060459686139686164 0.005127236354384923 -0.1347703835031184 0.017648145856674926 -0.0561881825381058 -0.07452726544283056 0.08509277987417027 -0.41672637031066095 0.15438878003434314 -0.5653109722412638 0.07942706176624192 0.008567868218579888 -0.005481935592019064 0.6829976471500443 -0.10590552480516353
9v6mr,-0.03266422153458561 -0.16521590304731815 0.3297931350391326 0.08295194222880205 -0.023415398805657357 0.04070423601619049 -0.016121464699601462 0.44963636479334196 -0.4043871625170327 0.04386313687615974 0.45793099155232914 0.1311176165069682 0.13582492087639686 -0.03095412775501776 0.3235681964121676 -0.2545780160423429 0.010917410627258818 -0.04126733736463123 -0.19854304296340256 0.24266224318188978 0.5215833294360531 0.1452129559554522 0.27848776391035196 0.08657473620109289 0.3750131800307181 0.0052967499302920855 -0.10393107318068519 -0.09833388358402068 0.03130963957406523 0.02570730335996662 -0.3102625616715938 0.2745638505143701 0.06973183869312391 0.14204804538569216 -0.18309722722414098 0.2554256129034944 0.058832276396249286 0.168708611876216 0.11840814342628693 0.3783661056845091 -0.23590991466565447 -0.5002751715228625 -0.0189372847063851 -0.09012837705665636 0.14785535800960745 0.005430040178461809 0.21842495929934047 -0.5073572184828633 0.0538861536710174 -0.274972279072745 0.06583216556522498 -0.2197503964177608 -0.013146174887784223 0.8445294498644911 -0.16495840637646578 -1.6685695896179922 -0.1339065484510458 -0.1731878771130686 1.2027740293881226 0.3974008058659948 -0.2298762215035158 0.3768760220486992 0.05121494738552306 0.16573298004286902 0.15912153203182874 0.11742587161280629 0.035337698090641634 -0.0818120220131577 0.22804141339464654 2.9008564373083502e-05 -0.2971974639203892 -0.14305716179829367 0.06340129773618972 -0.17559207325716042 0.3479683802380463 0.07692220077613726 0.23844646644355832 0.06594451548015685 -0.4279107301652937 -0.17602555410750764 0.4222822400657766 0.0776195516876967 -0.2657086222956907 0.08154661398076747 -0.7102988245663003 -0.0444301774519656 0.05537715033439433 -0.23256643942698335 0.020652026049070665 -0.0770816020491366 -0.12715185596848572 0.20451380173568212 -0.3252579023935513 0.10957085884389925 -0.545301492071792 0.1169314383417976 0.11562972479674305 0.030522660100661892 0.6333594151877066 -0.07209354797672579
9q5fm,-0.01961131208211799 -0.11704549106997739 0.2852186589512031 0.02966357549650549 0.05152328300213769 0.053699425530943395 -0.08408493799428073 0.4406397713922085 -0.2567016246747106 0.02540028554406518 0.3248698289476875 0.07462500866796754 0.11641746670819676 -0.08799209771982164 0.38571663314479954 -0.33854776963967487 0.15252656597750439 0.04067356644413734 -0.2600729192764149 0.1690846128974015 0.40877124276106724 0.04244623643239927 0.2966395083067076 0.18321402558959576 0.29480403469396005 0.010803725158223124 -0.07185771862902485 -0.21420104121265826 0.10871991340865396 -0.03394332727823905 -0.23070633488515857 0.31953821442873315 0.0713226389355036 0.14026423121720008 -0.19763011165304176 0.2201003932001693 0.13423857213628881 0.05557259605611268 0.10292585901558225 0.330173851369198 -0.251606118366817 -0.41725591471908263 -0.008609712378415653 -0.12050794654287524 0.11510782529916332 0.0045329959929622755 0.13714331743812286 -0.3942277159073402 0.03242568020141939 -0.29472242202799626 0.12519766419933726 -0.17041961392698757 -0.08868811362797226 0.8279316472570537 -0.12788225182161786 -1.8394392364574528 -0.11798421395125654 -0.11679067029083429 1.331032981948948 0.35963424063312244 -0.27091376850551624 0.3959700823867587 -0.0429149698342004 0.20978858711886722 0.1137266160915487 0.010387044630876956 0.09910628653309385 -0.03899773669603873 0.23139515805588942 -0.04069400682548251 -0.3304042169099246 -0.22325158641770337 -0.002251199797367955 -0.24787691485337662 0.25373962346567724 0.020869063048110092 0.19770618092776868 0.09538998879983195 -0.41029204656525065 -0.21335589710898076 0.42924142258144216 0.1451122199340381 -0.35398760044586647 0.10133251226141321 -0.8316042506052289 -0.07792829794017754 0.049001191532504255 -0.12083810500001248 -0.07553304663699119 -0.02722567130914255 -0.08532062877055303 0.06581234862193927 -0.3648990093113267 0.20545430034335116 -0.4632948308247409 0.06792362180160212 0.06713082733129319 0.04576767057036801 0.7038435785326987 -0.04971711360817143
9q5fn,0.029411051184652735 -0.15664775707556272 0.25977933676756976 0.02763614743228294 0.10279018328537612 0.05990444540155845 -0.05508809632524117 0.4753882785999673 -0.2236089520097906 -0.015908321447927618 0.35424877041093417 0.10985932582580878 0.09826468428758588 -0.10057952550256921 0.3824784879245739 -0.313766017925153 0.1608684890824961 0.026474918795397703 -0.26534291977078256 0.14387688068403798 0.45816789064621566 0.057168235600112007 0.3010246340941512 0.14947619077635776 0.30697613735037477 -0.017568772131005807 -0.0663046444992842 -0.21552913604778423 0.2046488534949017 -0.03331065091360141 -0.22903422770978601 0.3349888671050083 0.07863890567768754 0.16923568783173018 -0.18811058221880747 0.24062272482808605 0.08567351614653487 0.027809734875440553 0.07844172289447165 0.35969019071414626 -0.2471025772160393 -0.4546450505750581 0.01773316970391804 -0.11908080782720189 0.14329053684886203 0.0030007807686657922 0.13144955770855313 -0.390235689462413 0.02974215369270674 -0.190740370032951 0.1162195996861319 -0.11526449514484276 -0.0640747053449076 0.8055882843430077 -0.21161031792789312 -1.8744490505284919 -0.15955742502607628 -0.1335297527392324 1.2929810815669196 0.3770370718649977 -0.3637895291263584 0.36022157599808236 -0.012949788994730331 0.15904871062952936 0.10702834503753635 0.020568099336650422 0.07574221058832975 -0.06763796657165538 0.16199250016739644 -0.03604248508373994 -0.33085978367451424 -0.15640919804819958 0.027456941891299293 -0.28630838413990417 0.313255777025944 -0.03975070203127139 0.18388468843329336 0.14347484181110898 -0.39905968538136305 -0.2056041411635632 0.40200000990802687 0.12514144188153484 -0.32903390876318955 0.0866794926970301 -0.8235815661020126 -0.10440013454543134 0.008134658096328747 -0.12515624705655487 -0.02474796150188527 -0.07010432953558489 -0.12108430666568187 0.05447021186716718 -0.3557682495102819 0.24673873215169687 -0.507540257278878 0.07393530850571227 0.04107433753898657 0.024332106815205312 0.6639928822032499 -0.056793900766202686
9q5fp,-0.04521650764441278 -0.06968703203311581 0.31443405716429396 0.03764909185309797 0.03961169650855907 0.09400200203358046 -0.02662596629906104 0.42915997902912956 -0.34845666050381047 -0.008287938971191096 0.3428249686694795 0.09558670050994164 0.05389216011200168 -0.013313597183544244 0.28857739391722875 -0.31547802313869533 0.07259331191990527 0.03571434479459737 -0.21045458957514793 0.1453160917185079 0.36026268294663943 0.005906704622308746 0.27429366851861114 0.12205751305131794 0.27068406961401387 -0.019840320357289994 -0.05063328973151383 -0.16639076697285599 0.07723372973375789 -0.07965408293096041 -0.16104713165232137 0.28485842335596 0.08484527151398145 0.18511830266364965 -0.12286710365795718 0.1848541363797224 0.06262572345105966 0.007673709840189552 0.03491638269916111 0.3622742653997759 -0.30434019005299223 -0.43306381358438484 0.04747906887045219 -0.10404480357618194 0.1252973449752389 -0.042638275334987714 0.1862668470395089 -0.4374398432312091 0.07025510851630531 -0.1403863321304964 0.016435669167429875 -0.20310657448145517 -0.02500949779369647 0.7226850978716715 -0.10485190884803093 -1.6142837303481055 -0.10216592840209268 -0.05584394785921407 1.1820380429851505 0.3247317060758941 -0.3694914768027939 0.2634415038088175 -0.03946436956171433 0.07510025740384838 0.04889064499498804 0.08733140128947965 0.02720985612934067 -0.0630347385230617 0.2787041031888708 -0.00936237574417421 -0.24109070463439172 -0.06619041424091572 0.014813136403798673 -0.27433414897804165 0.3029380860225746 0.043017552920399875 0.08751517507860747 0.08033295443228584 -0.34338977100896906 -0.14293219816551783 0.38293085644433866 0.009543129977331836 -0.34305805855971616 0.07651451367160678 -0.766496744898428 -0.02444166499163766 -0.0320663600312608 -0.07493715871628252 0.08232896999325942 -0.06991056049262408 -0.1204521138635524 0.04277807569905487 -0.4120908701116453 0.1858397673259952 -0.5344322827709469 0.04638178809853659 0.028563500920495536 -0.02878829643040995 0.5675183991418896 -0.004067346888815085
9q5fq,0.0429855175501789 -0.1105835729505351 0.26311927642658467 0.079930203117782 0.03715846459119164 -0.001347352974599389 -0.09690693376244373 0.5253748252840018 -0.2742987935699223 0.03937123024042258 0.34676049894386135 0.08254312077654163 -0.013831838008887806 -0.0635723656760531 0.31330945774897195 -0.3313662644351721 0.13618257889062058 0.08375567315499408 -0.16633636337274937 0.1466748452720138 0.3909542407876757 0.09921923293725766 0.26184390367451393 0.17601631303507084 0.2688327902488422 -0.04777310976480521 -0.056292508927271105 -0.17368626606367008 0.13663112687326318 -0.07147652677032407 -0.2231063998169239 0.2901893441057555 0.0937804869718669 0.22870147632722562 -0.1236088044626391 0.26339063493287507 0.1414789982679635 -0.02658810235774216 0.08657312029236396 0.293898486968816 -0.2254779236922226 -0.4449761105212021 -0.07366004398514367 -0.09686992600998529 0.18311382776450277 0.024844211927319643 0.17363650319249294 -0.3562006425855448 0.10809883522414832 -0.1802545057534528 0.048096558146631614 -0.1655915781596992 -0.07680157269594332 0.704666253860659 -0.24509447444550678 -1.7253671509737496 -0.13204614646724314 -0.11908737675793889 1.1845769665212844 0.30843434508878276 -0.387744292800128 0.2790056577394241 -0.054338542138716105 0.16505702493616237 0.02743599663297813 0.02073670044957244 0.0930697616855594 -0.020754376082730636 0.3011908424747579 0.006600529594214209 -0.24539489175623777 -0.1399452096288305 -0.0022435513374429914 -0.267032428522388 0.24947600997420674 -0.007488053744054455 0.2056203701041567 0.1287023377707965 -0.3342191502889369 -0.19102566413344022 0.3656690373857557 0.03267704840463409 -0.27780782818250405 0.10782665129823715 -0.7892839671033605 -0.05090143758700516 0.02305392715077239 -0.18359629739744168 0.05706982828982298 -0.024302023465832316 -0.12991030277374327 0.046749260704868276 -0.33326455042458775 0.24755794317786156 -0.46289822608232817 0.06417248720316193 0.1055428881697175 0.011344205771994922 0.633159362363566 0.013462563912142775
9q5fr,0.03128237303786613 -0.10473670462888114 0.29209162180284487 0.07636071851105065 0.023427088880639102 0.053879551989142106 -0.027531103149786813 0.4857899925898861 -0.3512040684899136 0.07895475588510209 0.33345921256619077 0.041637292532192775 0.03734009687409778 -0.11502562343980062 0.3059565174195774 -0.3666497089007816 0.1010149240980705 0.07326814741829908 -0.19204804417236493 0.12074421402211848 0.37423067494847756 0.11619321988198544 0.2684785794327159 0.1721582767094502 0.3251546775923274 -0.04023994735022298 -0.06791393769381698 -0.1665519586168926 0.09843316145083214 -0.08244464596983736 -0.25086344454960446 0.22324041036913547 0.027397024127634374 0.18456262659772474 -0.16711871718692758 0.2388841915197215 0.14649922732085785 0.06492147630890148 0.0801247730945487 0.33626741078792094 -0.2544105845971375 -0.44910571827889395 -0.06525922503523932 -0.12169495873551384 0.17611639650166733 0.014123271296266511 0.18909073592865447 -0.4453304251153632 0.08700129488196032 -0.23722924139655632 0.07577313212742558 -0.21112950373822714 -0.07588016200154905 0.7640845963569841 -0.1758483197929959 -1.7746121843308538 -0.1432826832948483 -0.14602498894906144 1.3356013827083428 0.34992901110505825 -0.37041979711227385 0.3882044233174749 -0.036915401995434145 0.1697223198595125 0.036207736923470096 0.029703593834760452 0.07047614417408055 -0.06683899270524052 0.2797218193159888 -0.004191440726839108 -0.3021623867313402 -0.18095956051835854 0.031351022240237156 -0.22128759016185906 0.2428547996725333 0.018671232112433604 0.20089363896074275 0.12495956596405729 -0.38855049405104597 -0.16332012589297557 0.3921083982503504 0.10402655459735137 -0.354493260479865 0.15957995494833882 -0.8217611360041651 -0.03825164655937654 0.0854745444059615 -0.19249905806666026 0.016038391482320627 0.005470411499120918 -0.12517279415705107 0.14163639158604024 -0.37465432736805115 0.20810789338099867 -0.5256704398921238 0.05568563135343924 0.05351712693345572 0.043337218263231544 0.6466911675883579 -0.025340787235747807
9q5fs,0.09135664717186555 -0.0940646324208168 0.21205407729110637 0.10473180631254088 0.028970114006482056 -0.0034072764583818072 0.009388807381787347 0.445613259625864 -0.2684484197431939 0.0557261127158149 0.2688108213395668 0.07186453257382779 0.0008743657191439837 -0.05478295314639367 0.31217301719570034 -0.3687837526972691 0.17669302680865387 0.02201852402424091 -0.23574664476523272 0.1426614148173685 0.4152917362931716 0.16379580305660701 0.21131525752586683 0.1849848559356066 0.27766943379139086 -0.009557109054297392 -0.09915264958652592 -0.21158810307388556 0.1605547564670712 -0.06485496474057426 -0.2608090785384074 0.23057695637850353 0.0922503186856627 0.2628245379900516 -0.15149292031034953 0.22011423816080414 0.0985425294854553 -0.021606432645813804 0.14396979442593233 0.2950401194702349 -0.15962940439542947 -0.40452884230405434 -0.14804433905092074 -0.10509846983650678 0.19727130525437253 0.03249285857985952 0.17386942047215928 -0.382278142655032 0.09993230937496848 -0.03961717868568202 0.039002496313618296 -0.06582599044731577 -0.13015982799255824 0.6476199927235333 -0.27868934818307534 -1.6909588939877305 -0.09434756323243912 -0.1426150533760005 1.1112336858514356 0.3726724332194621 -0.4240250993674117 0.30668985891339773 -0.05146244854220295 0.1337675074461615 0.02775713751099424 0.01898372044586676 0.13565808771948065 -0.06082298823236172 0.2963748827591744 0.014059092393698062 -0.2232181569210657 -0.1064141438550462 0.08043562311218569 -0.2813201783468667 0.28997851124588236 -0.04006496954739035 0.20773481444308517 0.10951936531528166 -0.34854358132511887 -0.17979181643646083 0.36106285714282865 0.06604827716631645 -0.3254161451364103 0.08462383947840697 -0.7651660133348376 -0.06969964859913917 -0.004674879028018033 -0.19750424097203112 0.09115245558798289 -0.018156046103489865 -0.1334561743471377 0.10571052083885107 -0.35223015652979384 0.2713629385109197 -0.47681016153725536 0.03680584494269336 0.0241074319122736 0.011948858990694446 0.5851306066697644 -0.02432016425934746
9q5ft,0.10204799420231633 -0.09021665063786385 0.1933828313300006 0.10875898198325976 0.03234870148106239 -0.053204444124714034 -0.15948466895370225 0.54251438756914 -0.1330319828986425 0.003459201722730745 0.30490804012165607 0.1117090098186474 0.08910990875946154 -0.12722910546829327 0.28980126064984096 -0.29347322544838944 0.1788195385393507 0.05471723062954572 -0.22101993813361068 0.035318860083478794 0.39697292381447136 0.07988193123252137 0.23368849869243738 0.1308833614561192 0.2569269614367001 -0.06513928461035355 -0.061720672519723914 -0.1851874044477481 0.15269597181078004 -0.07014529667878557 -0.26051787738783017 0.25808890504880994 0.06444949796061385 0.24571153350822125 -0.14282056701661555 0.2754474253600205 0.11335593136315147 -0.05644407963716809 0.12557099876236535 0.2685532711215715 -0.2155423012308463 -0.4470985628436702 -0.13889812672734123 -0.10288028736380665 0.22675586080837856 0.04925481830158863 0.15425172368478074 -0.178780295554913 0.08330488698811765 -0.21464855160347804 0.05613849238363988 -0.12159325050308038 -0.046570062404729426 0.704002245667087 -0.2530911766949944 -1.7000434911333087 -0.12850697130205038 -0.18408425494375838 1.2765927321446267 0.28032306999564305 -0.38396352539762363 0.2983931553854271 0.01726352662764585 0.1523246820477966 0.025108923180384903 -0.014137576821237242 0.10232360482519658 -0.006886196550628024 0.19190392388754574 -0.003387681265341559 -0.2934212182931742 -0.16720514943891127 0.034613549107409505 -0.25998333726747397 0.178125078433846 -0.08406329296671107 0.2523503007229359 0.22799363182939447 -0.3254937297524076 -0.2427950945436681 0.30247803138046586 0.08001740552343617 -0.30999260525928457 0.12435518200554409 -0.7092353979762306 -0.025063206435371067 0.04727397805284252 -0.14158023127634642 0.016939930232198815 0.018814238305463554 -0.13313864689202537 0.09587971694720333 -0.3338978941951662 0.2783093056820926 -0.424201520012696 0.06712943988869771 0.09746000599968214 0.03271357170707458 0.6098797161688332 0.045954037250024594
9q5fu,-0.01026188879008465 -0.15628962335579186 0.27957407870853723 0.09943207822972927 0.025093036927287694 0.0154105260040185 0.03864429753449477 0.5623923144929034 -0.15631198365659807 -0.08332684842236761 0.2947945332762052 0.19105795383267135 0.036368786683452 -0.07936691769907331 0.2872770579274331 -0.21797497555597592 0.2473970351269404 -0.033140406876604696 -0.23998229708252872 0.18225908220220743 0.4308941101891544 0.12789680962151534 0.19385185093365634 0.15611379524262428 0.3167246181579853 0.09049359074398293 -0.11277232737350018 -0.17367267593962957 0.16609725611539577 -0.10958617950039502 -0.24929990683737918 0.19050347505444548 0.024695566487940152 0.19124316876844913 -0.15188539420980274 0.22149696270705177 0.07235904785245817 0.05847494570716233 0.16424126468961375 0.26886920318460517 -0.17654367038456464 -0.42264276369085474 -0.13812749989148798 -0.1528660926537803 0.2897062908606479 -9.785417872857067e-05 0.07116961720804882 -0.30462828980256135 -0.0029236327026619835 -0.08971986724266955 0.0012508277642613013 -0.008350495202777709 -0.19103592887126739 0.6343483285164742 -0.23606928309789962 -1.6799825219430633 -0.08957580738379622 -0.15726521992093645 1.0884720489183575 0.35113268752094395 -0.4002952562613551 0.3280977362104589 0.048158709010305265 0.10349602496809383 0.09822949114810692 0.013948420359135698 0.06454710339679182 -0.10234214666553595 0.17025983015970644 -0.029894798224906392 -0.2220577771354851 -0.06545779573801697 0.10363134176015687 -0.24450980615053955 0.22626744040457583 -0.07367085286023536 0.179324348565318 0.19713002275152458 -0.31177156441797743 -0.18925077689255954 0.374851410756095 0.09754301263336133 -0.2914860043067992 0.08647086801311676 -0.6187512510156513 -0.10601728895197507 -0.08148383734039318 -0.19357546771239925 0.04659081688564313 0.0034392011781016855 -0.17564085371730975 0.10064549436421304 -0.38379755141592675 0.2405762592465474 -0.4562992942930675 0.04284418051463747 -0.06450644569673163 0.025902685509389095 0.6245302865690804 -0.05921671292616759
9q5fw,0.13101630517108195 -0.10877310599071245 0.245811488640174 0.07767133702558336 0.009859590483625285 -0.07815765110326929 -0.1823151024869016 0.5415514761276233 -0.14295551673317214 -0.0011126725576291205 0.3125783671013385 0.10730430159431198 0.10447253857035568 -0.10596943518704399 0.3066793163807204 -0.26984952350970803 0.22513912070075254 0.06208159495380827 -0.142935372251498 0.003399690223458656 0.349202953938348 0.1168145446762469 0.1844465087391981 0.14603172930988842 0.2650937866019597 -0.02186711860871626 -0.04655926731289212 -0.18796460353353764 0.11172189959405919 -0.09602047705161393 -0.2340124586267116 0.27876400174820964 0.12091384883438906 0.273646521363864 -0.09111880725361403 0.23749893555273446 0.08660869605510582 -0.04244064795656499 0.10068999931337701 0.26457650495740637 -0.14747807806865745 -0.4364673698996432 -0.1890440612835031 -0.11540176108913841 0.2641443444377492 0.0785074490857768 0.1368690606581677 -0.1731394267236018 0.08781085393070324 -0.19993362542618795 0.03020064164042932 -0.19865181175812163 -0.07728450208585226 0.607465739070617 -0.25402748667783087 -1.6783001817048167 -0.1875799124996582 -0.18283873968026723 1.24808024146336 0.2704255524074159 -0.42835918034724485 0.3056025900895636 0.0553153727209268 0.17495883069579596 -0.04783796758106154 -0.02600625876992035 0.11171280388473685 0.05842814162585974 0.22136583846905156 0.08308666959327453 -0.3142160282536019 -0.1753728087339652 0.01229166526113938 -0.2691294998244118 0.14190247061892267 -0.132046447019071 0.2631727421223086 0.2624203695698334 -0.3602361336213084 -0.30282752371086036 0.2791989637842442 0.05087749058914374 -0.272762935801747 0.09926302794044203 -0.599062454763423 0.008517661523474166 0.053927112007863924 -0.2317516987147389 0.08028186871683875 0.05767408792659136 -0.1288121513241722 0.08903071789516545 -0.3304906342524817 0.2635225447036077 -0.4081833039021779 0.03210933994713672 0.12240918408311162 0.05184706091930512 0.6494079743510287 0.08521659874018478
9vk74,-0.21493775097735654 0.04664727284624191 -0.0034629829387279377 0.011855513251359745 -0.029496916589274242 -0.2043237622536461 -0.0035517932236905545 0.46324686955935607 -0.27063814190368807 -0.1811687834871843 0.18545976877015014 0.17075920414845425 0.2167857214109803 0.21921715831360666 0.18190450195883826 -0.2388884078397092 0.17396416656562647 -0.25253153792517263 -0.4562924745322105 0.15678090054390706 0.25135185181059283 0.00342165823745095 0.2472032644118683 0.055632488497416234 0.10169695507532925 0.045121015411707856 0.09055750093106167 -0.17795662994051603 -0.13529518519929346 0.14144602439836612 -0.19999602477584616 0.3581399828424221 0.21550593128909132 0.08478880922663687 -0.3866202289035964 0.06814191956924716 -0.0027006878156294193 0.2774610767353721 0.1412905513200676 -0.0924898234691818 -0.28475348643857346 -0.1755576017627107 -0.04912002918379869 -0.33561892698760176 0.10820053497777042 0.1999778239271839 0.02913876820059168 -0.0018030656366423334 -0.08290956443074013 -0.22239146041809335 0.0252374900285584 -0.09684706489494804 0.11060264565725339 0.5624709824697223 -0.23838527375960994 -1.6376514499145542 -0.3710525614282883 -0.13622407336841902 1.0139151802628832 0.05778040068570921 -0.14776692661490926 0.42033535954540024 0.0018706712476895052 0.13522438951275112 0.2724725743834849 -0.09811427520572906 0.2567538812444923 0.11871912313767155 0.2578421254717824 0.23412744317421347 -0.21461958523207172 -0.10482502603762181 -0.034144952090403545 -0.30428400902604036 0.013446869485243013 -0.02640108688980041 0.2285835117962412 0.23458695149740355 -0.5708972584890593 -0.05364586419378207 0.41300487539566716 0.13192291558251895 -0.16407653507288006 0.13866394736344573 -0.5441527978957335 -0.05936814511143686 0.044897542542403246 -0.14501933835169062 0.0016315229570429703 0.10726636586166247 0.058052454383928274 -0.06627474953820335 -0.23236210331282242 0.5951803496520267 -0.34642728224366215 0.20053511913507024 -0.009860634576980975 -0.14795713114922515 0.524503138365849 -0.16835549903192218
9q5fy,-0.0133159730563645 -0.2077792612749267 0.3385070570493191 -0.008309110357653578 -0.042019011100465506 -0.058882569368419485 0.007864774429912761 0.485296293875922 -0.21166188519193274 -0.03005769665871975 0.32447818859157107 0.1309345911785308 0.13223135679664716 -0.04713341537246389 0.3587067997924844 -0.1633071733519278 0.22157315696324895 -0.029774068220979846 -0.2610395283632544 0.08966977156507167 0.3399956019524188 0.08966393871676093 0.18537687428595923 0.20103348287790793 0.24098079920444196 0.0803819515297042 -0.1654003779747232 -0.19239747604720875 0.016676745047066944 -0.0607015884114844 -0.09844376420552121 0.202967080657821 0.095294013354125 0.2757927086586591 -0.14161287385950816 0.10741919518713768 0.06828170159613943 0.082561415211405 0.20044367316118844 0.3017531038317951 -0.1223383440976227 -0.34711596328341515 -0.17023806140866568 -0.18809096435160666 0.22692630715471723 0.09748821645717341 0.13930476825631874 -0.22348741729174312 -0.005943924914622492 -0.19173020256745488 -0.00674208805564257 -0.220083816580852 -0.04762703115480385 0.6033243007461957 -0.1288824678619976 -1.7101829237811796 -0.12264824314395852 -0.19047874983720922 1.1399062144762975 0.29925170202408974 -0.31191029098987155 0.4922059260909189 0.046368761375750904 0.12520473022182285 0.057477299443955916 0.08298718790640199 0.13345029926617688 -0.04415817509297464 0.1440486293794068 0.14129032588716303 -0.3176006672689531 -0.13719398339592895 0.02321034481207572 -0.16700089744419808 0.1977760298681776 -0.10986900117305289 0.31797213068781394 0.1872141184069704 -0.443751009624437 -0.22262315990957413 0.2761988732537426 0.11246503398323658 -0.2472486951649887 0.09608250269682193 -0.4091264771696269 -0.10660843073044368 0.005307325358328438 -0.2184758176537644 0.046678266610669976 0.05293500098426468 -0.07166769925155012 -0.011819965422133922 -0.3384897315738296 0.24132703862174434 -0.42518155629058063 0.12593128976088874 -0.04499634013679862 -0.047396078026571926 0.7016167505921234 -0.07517492563076549
